{"learner":{"attributes":{"scikit_learn":"{\"_estimator_type\": \"classifier\"}"},"feature_names":["spread","order_size","volatility","mid_price_diff","spread_ratio","sum_asks","sum_bids"],"feature_types":["float","float","float","float","float","float","float"],"gradient_booster":{"model":{"gbtree_model_param":{"num_parallel_tree":"1","num_trees":"100"},"iteration_indptr":[0,1,2,3,4,5,6,7,8,9,10,11,12,13,14,15,16,17,18,19,20,21,22,23,24,25,26,27,28,29,30,31,32,33,34,35,36,37,38,39,40,41,42,43,44,45,46,47,48,49,50,51,52,53,54,55,56,57,58,59,60,61,62,63,64,65,66,67,68,69,70,71,72,73,74,75,76,77,78,79,80,81,82,83,84,85,86,87,88,89,90,91,92,93,94,95,96,97,98,99,100],"tree_info":[0,0,0,0,0,0,0,0,0,0,0,0,0,0,0,0,0,0,0,0,0,0,0,0,0,0,0,0,0,0,0,0,0,0,0,0,0,0,0,0,0,0,0,0,0,0,0,0,0,0,0,0,0,0,0,0,0,0,0,0,0,0,0,0,0,0,0,0,0,0,0,0,0,0,0,0,0,0,0,0,0,0,0,0,0,0,0,0,0,0,0,0,0,0,0,0,0,0,0,0],"trees":[{"base_weights":[7.2484525E-8,4.5090437E-1,-7.1786437E-3,1.5086807E-1,7.5992477E-1,-5.554565E-4,-3.0203006E-1,3.7775818E-1,-1.0657157E-2,-5.1350947E-2,9.332584E-1,1.0829915E-2,-1.0257963E-1,-1.2000645E0,-2.5837877E-1,8.881383E-2,-4.154006E-1,5.599355E-1,-8.889486E-1,1.0410212E0,8.6893104E-2,-8.717044E-3,8.0052145E-2,-6.809214E-2,-5.051257E-1,-6.667946E-2,-4.2001843E-1,-5.600737E-1,-1.8841688E-1,-3.6438547E-2,1.1578342E0,2.6664877E-1,-5.4560114E-2,-1.1515618E-5,-3.4287363E-1,-5.4560114E-2,1.1078391E0,3.3332056E-1,-4.4450414E-1,2.5204902E-3,-1.3621691E-1,2.3241228E-1,2.3621302E-2,-3.3873394E-1,-2.5895884E-2,-8.943832E-1,1.265094E-1,3.5288247E-1,-7.1271694E-1,-3.0732226E-1,2.0944996E-1,5.736908E-2,-1.5557688E-1,1.19986184E-1,4.153687E-1,2.6484266E-1,5.249798E-1,-3.6001384E-1,9.9984646E-2,-1.4927824E-3,1.4170963E-1,5.3945713E-2,-5.518425E-2,4.144687E-2,2.2756365E-1,-1.9475874E-2,3.8675036E-2,-1.1202584E-2,-1.9233015E-1,9.3727686E-2,-1.46261575E-2,-3.4885916E-1,-7.3191516E-2,-2.1751723E-5,2.7271262E-1,2.9998466E-1,-2.000128E-1,-4.434973E-1,-1.2355109E-1,-5.3843327E-2,-3.2502112E-1,-2.7694258E-1,1.6624314E-1],"categories":[],"categories_nodes":[],"categories_segments":[],"categories_sizes":[],"default_left":[0,0,0,0,0,0,0,0,0,0,0,0,0,0,0,0,0,0,0,0,0,0,0,0,0,0,0,0,0,0,0,0,0,0,0,0,0,0,0,0,0,0,0,0,0,0,0,0,0,0,0,0,0,0,0,0,0,0,0,0,0,0,0,0,0,0,0,0,0,0,0,0,0,0,0,0,0,0,0,0,0,0,0],"id":0,"left_children":[1,3,5,7,9,11,13,-1,15,17,19,21,23,25,27,29,-1,31,33,35,37,39,41,43,45,-1,-1,47,49,51,53,-1,-1,-1,-1,-1,55,-1,57,59,61,63,65,67,69,71,73,75,77,79,81,-1,-1,-1,-1,-1,-1,-1,-1,-1,-1,-1,-1,-1,-1,-1,-1,-1,-1,-1,-1,-1,-1,-1,-1,-1,-1,-1,-1,-1,-1,-1,-1],"loss_changes":[2.1068262E1,9.342522E0,1.2511292E1,9.501616E0,7.0789948E0,7.2807527E0,5.2073746E0,0E0,6.5808363E0,5.4898715E0,3.6718178E0,7.6304E0,8.701359E0,9.11046E-1,2.7544918E0,6.0675697E0,0E0,1.6864871E0,1.0158343E0,3.1839256E0,3.6232774E0,6.301728E0,1.0670841E1,6.623433E0,1.22836485E1,0E0,0E0,3.7354207E0,5.339267E0,4.6272135E0,2.624445E-1,0E0,0E0,0E0,0E0,0E0,3.4761848E0,0E0,3.0443797E0,1.4241563E1,5.4069586E0,1.653306E1,8.4666195E0,7.107049E0,3.9089708E0,5.085949E0,1.9563915E0,3.4705853E0,4.401413E0,8.363085E0,1.0759486E1,0E0,0E0,0E0,0E0,0E0,0E0,0E0,0E0,0E0,0E0,0E0,0E0,0E0,0E0,0E0,0E0,0E0,0E0,0E0,0E0,0E0,0E0,0E0,0E0,0E0,0E0,0E0,0E0,0E0,0E0,0E0,0E0],"parents":[2147483647,0,0,1,1,2,2,3,3,4,4,5,5,6,6,8,8,9,9,10,10,11,11,12,12,13,13,14,14,15,15,17,17,18,18,19,19,20,20,21,21,22,22,23,23,24,24,27,27,28,28,29,29,30,30,36,36,38,38,39,39,40,40,41,41,42,42,43,43,44,44,45,45,46,46,47,47,48,48,49,49,50,50],"right_children":[2,4,6,8,10,12,14,-1,16,18,20,22,24,26,28,30,-1,32,34,36,38,40,42,44,46,-1,-1,48,50,52,54,-1,-1,-1,-1,-1,56,-1,58,60,62,64,66,68,70,72,74,76,78,80,82,-1,-1,-1,-1,-1,-1,-1,-1,-1,-1,-1,-1,-1,-1,-1,-1,-1,-1,-1,-1,-1,-1,-1,-1,-1,-1,-1,-1,-1,-1,-1,-1],"split_conditions":[-5.8E0,4.345775E0,2.05676E3,1.5045195E0,9.374052E-7,6.9927406E0,9.371171E-7,3.7775818E-1,4.228923E0,9.369529E-7,1.1976099E1,3.2911365E0,9.4153137E-7,9.365317E-7,0E0,3.973597E0,-4.154006E-1,-9E0,4.927952E0,3.103E1,-1.21E1,2.5491176E0,9.3767596E-7,9.369678E-7,7.7243E2,-6.667946E-2,-4.2001843E-1,2.14628E3,5.0635333E0,2.858464E0,-9E0,2.6664877E-1,-5.4560114E-2,-1.1515618E-5,-3.4287363E-1,-5.4560114E-2,9.123184E0,3.3332056E-1,1.7950792E1,2.417894E0,4.316E1,9.375124E-7,6.0182E2,9.446151E0,9.3712765E-7,9.426337E-7,1.54437E3,8.994654E0,2.29676E3,3.6702037E0,2.14628E3,5.736908E-2,-1.5557688E-1,1.19986184E-1,4.153687E-1,2.6484266E-1,5.249798E-1,-3.6001384E-1,9.9984646E-2,-1.4927824E-3,1.4170963E-1,5.3945713E-2,-5.518425E-2,4.144687E-2,2.2756365E-1,-1.9475874E-2,3.8675036E-2,-1.1202584E-2,-1.9233015E-1,9.3727686E-2,-1.46261575E-2,-3.4885916E-1,-7.3191516E-2,-2.1751723E-5,2.7271262E-1,2.9998466E-1,-2.000128E-1,-4.434973E-1,-1.2355109E-1,-5.3843327E-2,-3.2502112E-1,-2.7694258E-1,1.6624314E-1],"split_indices":[3,2,1,2,4,2,4,0,2,4,2,2,4,4,3,2,0,3,2,1,3,2,4,4,1,0,0,1,2,2,3,0,0,0,0,0,2,0,2,2,1,4,1,2,4,4,1,2,1,2,1,0,0,0,0,0,0,0,0,0,0,0,0,0,0,0,0,0,0,0,0,0,0,0,0,0,0,0,0,0,0,0,0],"split_type":[0,0,0,0,0,0,0,0,0,0,0,0,0,0,0,0,0,0,0,0,0,0,0,0,0,0,0,0,0,0,0,0,0,0,0,0,0,0,0,0,0,0,0,0,0,0,0,0,0,0,0,0,0,0,0,0,0,0,0,0,0,0,0,0,0,0,0,0,0,0,0,0,0,0,0,0,0,0,0,0,0,0,0],"sum_hessian":[6.50675E3,1.01E2,6.40575E3,5.2E1,4.9E1,6.266E3,1.3975E2,5.75E0,4.625E1,8.75E0,4.025E1,5.63775E3,6.2825E2,5.25E0,1.345E2,4.4E1,2.25E0,5.25E0,3.5E0,3.55E1,4.75E0,4.397E3,1.24075E3,5.7975E2,4.85E1,1.25E0,4E0,2.4E1,1.105E2,4.025E1,3.75E0,3.5E0,1.75E0,1E0,2.5E0,1.75E0,3.375E1,1.25E0,3.5E0,4.04175E3,3.5525E2,3.345E2,9.0625E2,7.725E1,5.025E2,2.975E1,1.875E1,3.25E0,2.075E1,8.525E1,2.525E1,2.775E1,1.25E1,1.5E0,2.25E0,2.675E1,7E0,1.5E0,2E0,3.97925E3,6.25E1,4.625E1,3.09E2,2.8475E2,4.975E1,4.925E2,4.1375E2,3.925E1,3.8E1,3.1E1,4.715E2,2.05E1,9.25E0,1.7E1,1.75E0,2E0,1.25E0,4.75E0,1.6E1,7.425E1,1.1E1,5.5E0,1.975E1],"tree_param":{"num_deleted":"0","num_feature":"7","num_nodes":"83","size_leaf_vector":"1"}},{"base_weights":[-2.8939534E-5,3.329308E-1,-5.2476823E-3,1.4263523E-1,5.999137E-1,-3.6858043E-4,-2.2406724E-1,3.3986056E-1,5.4213353E-2,1.0909817E0,3.0254248E-1,7.882277E-3,-8.901455E-2,-9.4799495E-1,-1.8971074E-1,6.7330545E-1,-5.818694E-2,4.0142965E-1,4.372448E-1,-7.958473E-1,5.8035964E-1,3.2468112E-3,1.9934276E-1,-1.8372913E-1,7.248225E-2,-5.560458E-2,-3.3204502E-1,1.1270619E-1,-2.387899E-1,-1.3040192E-1,9.6460575E-1,-1.020575E0,1.2812006E-1,-2.1515676E-1,9.1856265E-1,-1.1516273E0,1.3056679E-2,-3.4536982E-1,7.529056E-1,-3.9294526E-1,5.7544173E-3,2.6761007E-2,6.7111844E-1,-1.02486014E-1,-5.4455024E-1,5.660277E-1,-1.1305491E-2,-1.0347059E-1,9.1571516E-1,-9.4450575E-1,-1.4852831E-1,-5.3890087E-2,3.6975455E-1,4.6760798E-2,-3.7834683E-1,3.8804257E-1,8.761785E-3,3.5134846E-1,7.3354706E-2,-9.1465965E-2,-4.196605E-1,-3.376959E-1,1.4795294E-1,2.900719E-1,2.2315416E-2,-2.7748227E-1,-5.0471313E-2,-2.263177E-2,4.8934803E-3,9.437972E-2,-3.2907993E-2,3.4598452E-1,5.933539E-2,-1.8358067E-2,-2.0994346E-1,-3.3869058E-1,-1.04721345E-1,1.8989086E-1,-4.6165284E-2,-7.0181966E-2,2.9097592E-2,-2.0510899E-1,5.308661E-2,1.2618229E-1,3.4974805E-1,-1.17989175E-1,-4.4272277E-1,-1.2730496E-1,1.0360822E-2],"categories":[],"categories_nodes":[],"categories_segments":[],"categories_sizes":[],"default_left":[0,0,0,0,0,0,0,0,0,0,0,0,0,0,0,0,0,0,0,0,0,0,0,0,0,0,0,0,0,0,0,0,0,0,0,0,0,0,0,0,0,0,0,0,0,0,0,0,0,0,0,0,0,0,0,0,0,0,0,0,0,0,0,0,0,0,0,0,0,0,0,0,0,0,0,0,0,0,0,0,0,0,0,0,0,0,0,0,0],"id":1,"left_children":[1,3,5,7,9,11,13,-1,15,17,19,21,23,25,27,29,31,-1,33,35,37,39,41,43,45,-1,-1,47,49,-1,51,53,55,-1,57,59,-1,61,63,65,67,69,71,73,75,77,79,81,83,85,87,-1,-1,-1,-1,-1,-1,-1,-1,-1,-1,-1,-1,-1,-1,-1,-1,-1,-1,-1,-1,-1,-1,-1,-1,-1,-1,-1,-1,-1,-1,-1,-1,-1,-1,-1,-1,-1,-1],"loss_changes":[1.1300466E1,5.0132666E0,6.8360453E0,5.1839404E0,5.7232227E0,4.582483E0,3.2935953E0,0E0,3.9392345E0,1.8786659E0,8.762556E0,5.086424E0,8.173744E0,5.309658E-1,2.0243607E0,3.2245347E0,8.80077E0,0E0,3.8086767E0,1.8159218E0,3.8202448E0,5.563223E0,1.1012602E1,9.810193E0,8.191695E0,0E0,0E0,3.474636E0,7.2556224E0,0E0,2.4263778E0,2.4478598E0,4.73448E0,0E0,4.694736E-1,4.505067E-1,0E0,3.2948775E0,2.701703E0,4.054582E0,4.769841E0,3.9713485E0,8.043686E0,6.763213E0,6.6456585E0,1.4827356E0,4.126119E0,2.7632358E0,3.3617496E-2,3.220314E0,5.272374E0,0E0,0E0,0E0,0E0,0E0,0E0,0E0,0E0,0E0,0E0,0E0,0E0,0E0,0E0,0E0,0E0,0E0,0E0,0E0,0E0,0E0,0E0,0E0,0E0,0E0,0E0,0E0,0E0,0E0,0E0,0E0,0E0,0E0,0E0,0E0,0E0,0E0,0E0],"parents":[2147483647,0,0,1,1,2,2,3,3,4,4,5,5,6,6,8,8,9,9,10,10,11,11,12,12,13,13,14,14,15,15,16,16,18,18,19,19,20,20,21,21,22,22,23,23,24,24,27,27,28,28,30,30,31,31,32,32,34,34,35,35,37,37,38,38,39,39,40,40,41,41,42,42,43,43,44,44,45,45,46,46,47,47,48,48,49,49,50,50],"right_children":[2,4,6,8,10,12,14,-1,16,18,20,22,24,26,28,30,32,-1,34,36,38,40,42,44,46,-1,-1,48,50,-1,52,54,56,-1,58,60,-1,62,64,66,68,70,72,74,76,78,80,82,84,86,88,-1,-1,-1,-1,-1,-1,-1,-1,-1,-1,-1,-1,-1,-1,-1,-1,-1,-1,-1,-1,-1,-1,-1,-1,-1,-1,-1,-1,-1,-1,-1,-1,-1,-1,-1,-1,-1,-1],"split_conditions":[-5.8E0,5.155008E0,2.05676E3,1.3953305E0,6.906412E0,9.4153137E-7,9.371171E-7,3.3986056E-1,4.9217E2,1.66043E3,8.061441E0,9.412655E-7,7.7243E2,9.365317E-7,3.077935E-2,2.1683064E0,7.5129E2,4.0142965E-1,5.7657313E0,9.407342E-7,9.374052E-7,-3E0,7.9463E2,5.201002E0,8.3436E2,-5.560458E-2,-3.3204502E-1,1.492995E-11,4.8936047E-2,-1.3040192E-1,9.3745183E-7,1.8094488E0,8.5551E2,-2.1515676E-1,6.1820855E0,7.157359E0,1.3056679E-2,1.23298645E1,1.1976099E1,1.03033E3,9.369529E-7,9.413266E-7,3.906523E0,7.3538E2,5.938669E0,8.166788E0,1.01593E3,2.29676E3,2.799E3,9.4108833E-7,9.3923126E-7,-5.3890087E-2,3.6975455E-1,4.6760798E-2,-3.7834683E-1,3.8804257E-1,8.761785E-3,3.5134846E-1,7.3354706E-2,-9.1465965E-2,-4.196605E-1,-3.376959E-1,1.4795294E-1,2.900719E-1,2.2315416E-2,-2.7748227E-1,-5.0471313E-2,-2.263177E-2,4.8934803E-3,9.437972E-2,-3.2907993E-2,3.4598452E-1,5.933539E-2,-1.8358067E-2,-2.0994346E-1,-3.3869058E-1,-1.04721345E-1,1.8989086E-1,-4.6165284E-2,-7.0181966E-2,2.9097592E-2,-2.0510899E-1,5.308661E-2,1.2618229E-1,3.4974805E-1,-1.17989175E-1,-4.4272277E-1,-1.2730496E-1,1.0360822E-2],"split_indices":[3,2,1,2,2,4,4,0,1,1,2,4,1,4,2,2,1,0,2,4,4,3,1,2,1,0,0,2,2,0,4,2,1,0,2,2,0,2,2,1,4,4,2,1,2,2,1,1,1,4,4,0,0,0,0,0,0,0,0,0,0,0,0,0,0,0,0,0,0,0,0,0,0,0,0,0,0,0,0,0,0,0,0,0,0,0,0,0,0],"split_type":[0,0,0,0,0,0,0,0,0,0,0,0,0,0,0,0,0,0,0,0,0,0,0,0,0,0,0,0,0,0,0,0,0,0,0,0,0,0,0,0,0,0,0,0,0,0,0,0,0,0,0,0,0,0,0,0,0,0,0,0,0,0,0,0,0,0,0,0,0,0,0,0,0,0,0,0,0,0,0,0,0,0,0,0,0,0,0,0,0],"sum_hessian":[6.501369E3,9.935955E1,6.4020093E3,5.890704E1,4.045251E1,6.2633545E3,1.386547E2,3.86057E0,5.5046467E1,1.425069E1,2.620182E1,5.7308574E3,5.3249713E2,5.07732E0,1.3357738E2,7.6915827E0,4.7354885E1,9.581842E0,4.668848E0,4.9129868E0,2.1288836E1,5.5963804E3,1.3447746E2,3.355602E2,1.9693689E2,1.2486148E0,3.8287055E0,1.84703E1,1.1510707E2,1.4987631E0,6.1928196E0,6.95422E0,4.0400665E1,1.229605E0,3.439243E0,3.1891856E0,1.723801E0,3.1872494E0,1.8101585E1,3.4218937E1,5.562161E3,9.923333E1,3.524413E1,2.749386E2,6.062162E1,2.7745947E1,1.6919093E2,1.5238984E1,3.2313166E0,1.1979615E1,1.0312746E2,1.237398E0,4.9554214E0,1.2404611E0,5.713759E0,2.2160113E0,3.8184654E1,1.9652566E0,1.4739864E0,1.2254547E0,1.9637308E0,1.4736263E0,1.7136232E0,1.3438238E1,4.6633472E0,9.236145E0,2.4982792E1,6.392953E2,4.9228657E3,3.1494017E1,6.773932E1,1.6747608E1,1.8496523E1,2.5819247E2,1.674612E1,1.3997699E1,4.6623924E1,2.5495947E1,2.25E0,5.498808E1,1.1420286E2,4.4967494E0,1.0742235E1,1.9845291E0,1.2467874E0,6.7334075E0,5.2462077E0,4.061506E1,6.2512398E1],"tree_param":{"num_deleted":"0","num_feature":"7","num_nodes":"89","size_leaf_vector":"1"}},{"base_weights":[-4.531178E-5,-9.391178E-4,3.5043877E-1,2.3709258E-1,-4.5264084E-3,6.429727E-2,4.21725E-1,1.8310427E-3,-1.2095382E-1,1.4052138E-1,-3.405273E-1,-8.570344E-2,5.344763E-1,-5.113426E-3,2.4320887E-1,1.2467687E-2,-1.9983523E-1,-1.9044545E-1,3.7991965E-1,3.3941862E-1,-6.549085E-1,7.9953015E-1,2.4767281E-1,-9.173932E-4,-1.6863213E-1,3.1108764E-1,-3.122416E-1,-4.7120047E-1,6.253871E-2,-1.1948787E0,-1.7450412E-1,1.5275747E-1,-1.3226123E-1,-6.823092E-2,2.3943815E-1,-2.7050955E-2,2.4984182E-1,-8.515435E-3,-3.1351846E-1,6.5498844E-2,3.066982E-1,-4.7134582E-2,2.159838E-1,-1.6355348E-1,5.6505876E-5,7.4613065E-2,-7.2490536E-2,6.572478E-2,2.3748696E-1,5.0291247E-3,-2.2315171E-1,-3.0026966E-1,-5.2560426E-2,1.6945888E-1,-1.1840268E-2,-6.448959E-2,-4.3928674E-1,-7.210017E-2,3.5811648E-2],"categories":[],"categories_nodes":[],"categories_segments":[],"categories_sizes":[],"default_left":[0,0,0,0,0,0,0,0,0,0,0,0,0,0,0,0,0,0,0,0,0,0,0,0,0,0,0,0,0,0,0,0,0,0,0,0,0,0,0,0,0,0,0,0,0,0,0,0,0,0,0,0,0,0,0,0,0,0,0],"id":2,"left_children":[1,3,-1,5,7,9,11,13,15,17,-1,19,21,23,25,27,29,31,33,35,37,39,41,43,45,47,49,51,53,55,57,-1,-1,-1,-1,-1,-1,-1,-1,-1,-1,-1,-1,-1,-1,-1,-1,-1,-1,-1,-1,-1,-1,-1,-1,-1,-1,-1,-1],"loss_changes":[6.7835054E0,5.544381E0,0E0,3.0484686E0,4.734745E0,4.819972E0,2.7019272E0,1.0169707E1,3.4882402E0,3.9405866E0,0E0,2.4732168E0,2.7000208E0,4.0463405E0,6.4941044E0,3.032484E0,5.0393753E0,3.9314542E0,7.4620466E0,1.3433466E0,1.0259334E0,2.2842236E0,3.8904557E0,3.4611485E0,4.5553823E0,6.5330763E0,2.7069106E0,1.6669085E0,5.8252835E0,1.0046148E0,3.9792175E0,0E0,0E0,0E0,0E0,0E0,0E0,0E0,0E0,0E0,0E0,0E0,0E0,0E0,0E0,0E0,0E0,0E0,0E0,0E0,0E0,0E0,0E0,0E0,0E0,0E0,0E0,0E0,0E0],"parents":[2147483647,0,0,1,1,3,3,4,4,5,5,6,6,7,7,8,8,9,9,11,11,12,12,13,13,14,14,15,15,16,16,17,17,18,18,19,19,20,20,21,21,22,22,23,23,24,24,25,25,26,26,27,27,28,28,29,29,30,30],"right_children":[2,4,-1,6,8,10,12,14,16,18,-1,20,22,24,26,28,30,32,34,36,38,40,42,44,46,48,50,52,54,56,58,-1,-1,-1,-1,-1,-1,-1,-1,-1,-1,-1,-1,-1,-1,-1,-1,-1,-1,-1,-1,-1,-1,-1,-1,-1,-1,-1,-1],"split_conditions":[1.2E0,-5.8E0,3.5043877E-1,4.345775E0,1.70899E3,4.228923E0,9.374052E-7,1.46944E3,6.708204E-1,1.14354E3,-3.405273E-1,9.369529E-7,9.392736E-7,1.1976099E1,9.410875E-7,1.74905E3,7.6932985E-1,3.9235E2,-9E0,9.368555E-7,1.00628E3,-1.21E1,9.4082185E-7,-4.3E0,7.614E1,9.404803E-7,3.8659477E0,9.378228E-7,9.383147E-7,9.3886973E-7,9.408068E-7,1.5275747E-1,-1.3226123E-1,-6.823092E-2,2.3943815E-1,-2.7050955E-2,2.4984182E-1,-8.515435E-3,-3.1351846E-1,6.5498844E-2,3.066982E-1,-4.7134582E-2,2.159838E-1,-1.6355348E-1,5.6505876E-5,7.4613065E-2,-7.2490536E-2,6.572478E-2,2.3748696E-1,5.0291247E-3,-2.2315171E-1,-3.0026966E-1,-5.2560426E-2,1.6945888E-1,-1.1840268E-2,-6.448959E-2,-4.3928674E-1,-7.210017E-2,3.5811648E-2],"split_indices":[0,3,0,2,1,2,4,1,2,1,0,4,4,2,4,1,2,1,3,4,1,3,4,3,1,4,2,4,4,4,4,0,0,0,0,0,0,0,0,0,0,0,0,0,0,0,0,0,0,0,0,0,0,0,0,0,0,0,0],"split_type":[0,0,0,0,0,0,0,0,0,0,0,0,0,0,0,0,0,0,0,0,0,0,0,0,0,0,0,0,0,0,0,0,0,0,0,0,0,0,0,0,0,0,0,0,0,0,0,0,0,0,0,0,0,0,0,0,0,0,0],"sum_hessian":[6.494804E3,6.490837E3,3.9671419E0,9.540233E1,6.3954346E3,4.997736E1,4.5424973E1,6.0652305E3,3.3020413E2,4.782105E1,2.1563077E0,8.302064E0,3.712291E1,5.8965645E3,1.6866605E2,1.2300056E2,2.0720357E2,2.0157665E1,2.7663383E1,4.9836345E0,3.3184292E0,1.83639E1,1.875901E1,5.7500195E3,1.4654492E2,1.5069083E2,1.7975224E1,1.0749885E1,1.1225068E2,3.9976966E0,2.0320586E2,5.040957E0,1.5116709E1,1.1466677E1,1.6196707E1,3.1009262E0,1.8827083E0,1.6851306E0,1.6332986E0,5.637515E0,1.2726384E1,1.0460541E1,8.29847E0,1.06607E1,5.739359E3,2.1459381E1,1.2508554E2,1.2769736E2,2.2993471E1,1.0745285E1,7.2299385E0,2.9999554E0,7.7499294E0,1.8181137E1,9.4069534E1,1.2497934E0,2.747903E0,1.6616602E2,3.703984E1],"tree_param":{"num_deleted":"0","num_feature":"7","num_nodes":"59","size_leaf_vector":"1"}},{"base_weights":[-2.5300928E-5,-6.725903E-4,3.0778474E-1,1.7619269E-1,-3.2656542E-3,2.713138E-1,1.3867307E-1,-1.9939619E-4,-1.4224163E-1,-7.261153E-2,3.0997208E-1,5.892501E-3,-6.611722E-2,-7.347764E-1,-1.1617626E-1,-2.395267E-1,5.835519E-1,5.0267667E-1,9.620798E-2,4.768203E-3,4.510119E-1,-4.1572805E-2,-5.293793E-1,-3.4563724E-2,-8.8325846E-1,-1.3809624E-1,4.23233E-1,-1.1095194E-2,-2.8596136E-1,-6.624786E-2,2.7989113E-1,6.61463E-2,3.1846535E-1,-2.131909E-1,9.6069895E-2,-2.6172723E-3,1.0785196E-2,4.4567484E-2,3.4610292E-1,-2.1504246E-2,8.644449E-2,-2.3059578E-1,-3.0535078E-2,-3.020337E-1,-7.6393284E-2,-3.447728E-2,-2.5421673E-1,3.3001032E-1,-1.1835501E-1],"categories":[],"categories_nodes":[],"categories_segments":[],"categories_sizes":[],"default_left":[0,0,0,0,0,0,0,0,0,0,0,0,0,0,0,0,0,0,0,0,0,0,0,0,0,0,0,0,0,0,0,0,0,0,0,0,0,0,0,0,0,0,0,0,0,0,0,0,0],"id":3,"left_children":[1,3,-1,5,7,-1,9,11,13,15,17,19,21,23,25,27,29,31,33,35,37,39,41,-1,43,45,47,-1,-1,-1,-1,-1,-1,-1,-1,-1,-1,-1,-1,-1,-1,-1,-1,-1,-1,-1,-1,-1,-1],"loss_changes":[4.311487E0,2.9761531E0,0E0,2.4364178E0,2.7252421E0,0E0,3.2926543E0,2.5134814E0,2.0468247E0,4.6593E0,2.0149345E0,2.8652756E0,5.998885E0,4.1609454E-1,1.6360364E0,4.822492E0,2.639862E0,3.8829021E0,4.743364E0,2.4053204E0,2.894307E0,5.0235987E0,2.6389709E0,0E0,8.457255E-2,2.0223012E0,3.4537706E0,0E0,0E0,0E0,0E0,0E0,0E0,0E0,0E0,0E0,0E0,0E0,0E0,0E0,0E0,0E0,0E0,0E0,0E0,0E0,0E0,0E0,0E0],"parents":[2147483647,0,0,1,1,3,3,4,4,6,6,7,7,8,8,9,9,10,10,11,11,12,12,13,13,14,14,15,15,16,16,17,17,18,18,19,19,20,20,21,21,22,22,24,24,25,25,26,26],"right_children":[2,4,-1,6,8,-1,10,12,14,16,18,20,22,24,26,28,30,32,34,36,38,40,42,-1,44,46,48,-1,-1,-1,-1,-1,-1,-1,-1,-1,-1,-1,-1,-1,-1,-1,-1,-1,-1,-1,-1,-1,-1],"split_conditions":[1.6E0,-5.8E0,3.0778474E-1,1.3953305E0,2.05676E3,2.713138E-1,3.973597E0,9.4153137E-7,9.371171E-7,1.96414E3,6.906412E0,2.02667E3,8.647233E0,9.365317E-7,1.1976099E1,1.54437E3,2.0104988E0,5.7657313E0,8.061441E0,3.130495E0,9.393195E-7,9.426337E-7,6.8657E2,-3.4563724E-2,4.5737925E0,1.0474928E1,9.375124E-7,-1.1095194E-2,-2.8596136E-1,-6.624786E-2,2.7989113E-1,6.61463E-2,3.1846535E-1,-2.131909E-1,9.6069895E-2,-2.6172723E-3,1.0785196E-2,4.4567484E-2,3.4610292E-1,-2.1504246E-2,8.644449E-2,-2.3059578E-1,-3.0535078E-2,-3.020337E-1,-7.6393284E-2,-3.447728E-2,-2.5421673E-1,3.3001032E-1,-1.1835501E-1],"split_indices":[0,3,0,2,1,0,2,4,4,1,2,1,2,4,2,1,2,2,2,2,4,4,1,0,2,2,4,0,0,0,0,0,0,0,0,0,0,0,0,0,0,0,0,0,0,0,0,0,0],"split_type":[0,0,0,0,0,0,0,0,0,0,0,0,0,0,0,0,0,0,0,0,0,0,0,0,0,0,0,0,0,0,0,0,0,0,0,0,0,0,0,0,0,0,0,0,0,0,0,0,0],"sum_hessian":[6.490164E3,6.4870703E3,3.0933614E0,9.276688E1,6.3943037E3,3.4134734E0,8.93534E1,6.25725E3,1.3705367E2,4.026528E1,4.9088116E1,5.728731E3,5.285189E2,4.6292315E0,1.3242444E2,3.260593E1,7.6593533E0,2.5104921E1,2.3983194E1,5.7153057E3,1.3425208E1,5.029609E2,2.5557987E1,1.2382754E0,3.3909562E0,1.2796818E2,4.4562593E0,2.6217258E1,6.3886714E0,2.4310284E0,5.228325E0,1.7608494E1,7.496428E0,4.739906E0,1.924329E1,3.989706E3,1.7255997E3,1.0232269E1,3.192938E0,4.6159375E2,4.1367172E1,1.5876326E1,9.681661E0,2.3312824E0,1.0596738E0,1.2504508E2,2.9230912E0,2.2493844E0,2.2068746E0],"tree_param":{"num_deleted":"0","num_feature":"7","num_nodes":"49","size_leaf_vector":"1"}},{"base_weights":[7.844582E-5,-4.2773617E-4,2.5576785E-1,-5.635558E-2,6.4686737E-3,-8.002137E-2,2.4371277E-1,1.5093415E-2,-6.9669046E-2,-6.858152E-2,-8.2502717E-1,4.903505E-1,-3.1742355E-1,2.840707E-3,1.7066872E-1,-2.0065127E-1,-5.104497E-3,-3.384138E-2,-3.5004994E-1,-1.1838224E0,1.13081075E-1,6.7054915E-1,-7.191182E-1,-6.989506E-1,1.0450731E-1,4.2964686E-2,-2.7259953E-2,3.8606063E-2,2.9206407E-1,2.842027E-2,-3.3343503E-1,1.0239197E0,-2.6304621E-2,2.5668744E-2,-3.6562886E-2,-1.4603059E-1,1.9612855E-1,-4.0127307E-1,-7.412994E-2,-4.642879E-2,1.07655294E-1,-1.7052802E-1,2.4104223E-1,-3.344719E-1,-1.5155679E-2,-3.501106E-1,-2.7643569E-2,1.2540336E-1,-2.5384533E-1,9.797958E-3,9.565271E-2,-5.664515E-3,-1.15300596E-1,2.4693407E-2,-1.5474887E-1,1.2720801E-1,1.1964388E-2,3.9923448E-2,-1.8529876E-1,1.0223781E-1,-1.1569191E-1,-2.1441664E-4,4.4709918E-1,-7.518055E-2,6.178255E-3],"categories":[],"categories_nodes":[],"categories_segments":[],"categories_sizes":[],"default_left":[0,0,0,0,0,0,0,0,0,0,0,0,0,0,0,0,0,0,0,0,0,0,0,0,0,0,0,0,0,0,0,0,0,0,0,0,0,0,0,0,0,0,0,0,0,0,0,0,0,0,0,0,0,0,0,0,0,0,0,0,0,0,0,0,0],"id":4,"left_children":[1,3,-1,5,7,9,11,13,15,17,19,21,23,25,27,29,31,33,35,37,39,41,43,45,47,49,51,53,55,57,59,61,63,-1,-1,-1,-1,-1,-1,-1,-1,-1,-1,-1,-1,-1,-1,-1,-1,-1,-1,-1,-1,-1,-1,-1,-1,-1,-1,-1,-1,-1,-1,-1,-1],"loss_changes":[2.7994196E0,2.5011718E0,0E0,5.0745907E0,3.7919595E0,5.573234E0,7.391773E0,9.885849E0,4.9680786E0,6.3602934E0,3.465806E0,8.483792E0,2.7406545E0,5.8089566E0,6.0587797E0,5.9097557E0,8.635444E0,6.119585E0,1.0129211E1,7.1333504E-1,2.9590443E-1,5.804329E0,1.3311565E0,2.4011755E0,2.9581976E0,5.850375E0,8.214304E0,4.464703E0,6.5432663E0,4.9576235E0,4.456423E0,3.8198147E0,4.082594E0,0E0,0E0,0E0,0E0,0E0,0E0,0E0,0E0,0E0,0E0,0E0,0E0,0E0,0E0,0E0,0E0,0E0,0E0,0E0,0E0,0E0,0E0,0E0,0E0,0E0,0E0,0E0,0E0,0E0,0E0,0E0,0E0],"parents":[2147483647,0,0,1,1,3,3,4,4,5,5,6,6,7,7,8,8,9,9,10,10,11,11,12,12,13,13,14,14,15,15,16,16,17,17,18,18,19,19,20,20,21,21,22,22,23,23,24,24,25,25,26,26,27,27,28,28,29,29,30,30,31,31,32,32],"right_children":[2,4,-1,6,8,10,12,14,16,18,20,22,24,26,28,30,32,34,36,38,40,42,44,46,48,50,52,54,56,58,60,62,64,-1,-1,-1,-1,-1,-1,-1,-1,-1,-1,-1,-1,-1,-1,-1,-1,-1,-1,-1,-1,-1,-1,-1,-1,-1,-1,-1,-1,-1,-1,-1,-1],"split_conditions":[1.6E0,7.614E1,2.5576785E-1,8.647233E0,6.9927406E0,7.8523397E0,9.391545E-7,5.3605185E0,4.7214E2,6.143E1,9.3967964E-7,1.7950792E1,1.5177394E1,4.9663E2,6.2558E2,8.647233E0,4.8383E2,6.15587E-1,5.615812E0,2E0,1.095E1,9.369424E-7,9.3779204E-7,2.487E1,2.246188E1,4.7979274E0,5.026247E0,9.415943E-7,1.182E3,3.8451E2,9.366352E-7,9.676804E0,7.639792E0,2.5668744E-2,-3.6562886E-2,-1.4603059E-1,1.9612855E-1,-4.0127307E-1,-7.412994E-2,-4.642879E-2,1.07655294E-1,-1.7052802E-1,2.4104223E-1,-3.344719E-1,-1.5155679E-2,-3.501106E-1,-2.7643569E-2,1.2540336E-1,-2.5384533E-1,9.797958E-3,9.565271E-2,-5.664515E-3,-1.15300596E-1,2.4693407E-2,-1.5474887E-1,1.2720801E-1,1.1964388E-2,3.9923448E-2,-1.8529876E-1,1.0223781E-1,-1.1569191E-1,-2.1441664E-4,4.4709918E-1,-7.518055E-2,6.178255E-3],"split_indices":[0,1,0,2,2,2,4,2,1,1,4,2,2,1,1,2,1,2,2,3,1,4,4,1,2,2,2,4,1,1,4,2,2,0,0,0,0,0,0,0,0,0,0,0,0,0,0,0,0,0,0,0,0,0,0,0,0,0,0,0,0,0,0,0,0],"split_type":[0,0,0,0,0,0,0,0,0,0,0,0,0,0,0,0,0,0,0,0,0,0,0,0,0,0,0,0,0,0,0,0,0,0,0,0,0,0,0,0,0,0,0,0,0,0,0,0,0,0,0,0,0,0,0,0,0,0,0,0,0,0,0,0,0],"sum_hessian":[6.485642E3,6.4827925E3,2.849822E0,7.1084863E2,5.771944E3,6.5956354E2,5.128512E1,5.185358E3,5.8658606E2,6.5066437E2,8.899138E0,3.571386E1,1.557126E1,4.8077314E3,3.7762622E2,1.929798E2,3.9360626E2,5.801765E2,7.0487854E1,6.247682E0,2.6514559E0,3.1470634E1,4.2432237E0,7.832365E0,7.7388954E0,2.0605735E3,2.747158E3,1.814978E2,1.9612843E2,7.110285E1,1.2187694E2,6.9906793E0,3.8661557E2,2.4623294E2,3.3394357E2,6.2491608E1,7.9962473E0,4.9991794E0,1.2485029E0,1.4459416E0,1.2055142E0,2.7317796E0,2.8738855E1,2.2460895E0,1.9971343E0,3.900391E0,3.931974E0,6.241045E0,1.4978508E0,1.9874547E3,7.311877E1,2.6852065E3,6.1951458E1,1.6902533E2,1.2472462E1,1.2830655E2,6.7821884E1,6.187401E1,9.228847E0,8.361347E0,1.1351559E2,2.499069E0,4.4916105E0,6.610756E1,3.2050803E2],"tree_param":{"num_deleted":"0","num_feature":"7","num_nodes":"65","size_leaf_vector":"1"}},{"base_weights":[-4.6619578E-5,-1.7099837E-3,1.902781E-1,1.1818436E-3,-1.2512682E-1,8.207268E-1,-7.759514E-3,1.5850502E-1,-1.0381342E-3,-1.696048E-2,-4.3892938E-1,1.1906397E0,1.0501934E-1,-6.1074823E-1,2.560155E-1,4.18729E-1,6.623039E-2,-5.5983093E-2,5.3817923E-3,-1.1229347E-1,8.581185E-1,-7.469342E-1,-1.4398627E-1,3.952907E-1,9.211278E-2,-2.6748604E-1,5.606192E-1,7.919514E-2,-8.685181E-1,3.7941316E-1,1.5157844E-2,3.156795E-1,2.7755067E-1,-3.529336E-1,1.4865121E-1,-1.8655199E-1,1.4135645E-2,7.0404075E-2,-1.1731408E-2,-4.1603252E-2,-7.15798E-1,1.6510843E-1,3.803797E-1,-1.8469086E-2,-1.0403951E0,4.4829822E-1,-5.190978E-1,3.2121774E-2,2.567138E-1,1.0632555E-1,-4.998428E-2,-1.0595819E0,8.107512E-2,-7.7034995E-2,2.1157365E-1,-1.3707506E-2,2.1283777E-1,-8.899138E-2,7.639232E-2,-4.183262E-2,-2.4574262E-1,7.479959E-2,-2.1466387E-2,1.7549653E-2,1.6309303E-1,-1.079279E-1,-1.8294385E-3,1.9081058E-1,-2.2164963E-2,-4.1658953E-1,5.656594E-3,2.4151501E-1,-1.7630015E-1,7.808074E-2,-1.8880594E-1,-3.5424942E-1,-1.1340558E-1,-6.104059E-2,2.5247496E-1,-3.5271636E-1,-7.853546E-2,-8.7901436E-2,-3.4192717E-1,4.9141156E-3,-2.110912E-1],"categories":[],"categories_nodes":[],"categories_segments":[],"categories_sizes":[],"default_left":[0,0,0,0,0,0,0,0,0,0,0,0,0,0,0,0,0,0,0,0,0,0,0,0,0,0,0,0,0,0,0,0,0,0,0,0,0,0,0,0,0,0,0,0,0,0,0,0,0,0,0,0,0,0,0,0,0,0,0,0,0,0,0,0,0,0,0,0,0,0,0,0,0,0,0,0,0,0,0,0,0,0,0,0,0],"id":5,"left_children":[1,3,5,7,9,11,13,15,17,19,21,23,25,27,29,31,33,35,37,39,41,43,45,-1,-1,-1,47,49,51,-1,53,-1,55,-1,57,59,61,63,65,67,69,71,-1,73,75,77,79,-1,-1,-1,-1,81,-1,83,-1,-1,-1,-1,-1,-1,-1,-1,-1,-1,-1,-1,-1,-1,-1,-1,-1,-1,-1,-1,-1,-1,-1,-1,-1,-1,-1,-1,-1,-1,-1],"loss_changes":[2.05241E0,2.2939048E0,7.0191784E0,2.1937356E0,4.987333E0,3.4320498E0,7.1122494E0,2.0709307E0,2.1853065E0,9.312363E0,3.3154902E0,5.785179E-1,3.0766063E0,2.4882598E0,7.5436225E0,1.7374768E0,6.9049687E0,5.9364967E0,6.1734157E0,4.257889E0,2.9057512E0,3.8700743E0,4.7844E0,0E0,0E0,0E0,5.117811E-1,3.713814E-1,2.4594278E0,0E0,1.7174273E0,0E0,2.8126817E0,0E0,3.0257611E0,6.636448E0,8.535122E0,6.480686E0,8.609051E0,2.038136E0,5.204574E0,2.9904594E0,0E0,1.2267605E0,7.5832367E-1,2.3450606E0,1.8897786E0,0E0,0E0,0E0,0E0,2.0418549E-1,0E0,1.4140936E0,0E0,0E0,0E0,0E0,0E0,0E0,0E0,0E0,0E0,0E0,0E0,0E0,0E0,0E0,0E0,0E0,0E0,0E0,0E0,0E0,0E0,0E0,0E0,0E0,0E0,0E0,0E0,0E0,0E0,0E0,0E0],"parents":[2147483647,0,0,1,1,2,2,3,3,4,4,5,5,6,6,7,7,8,8,9,9,10,10,11,11,12,12,13,13,14,14,15,15,16,16,17,17,18,18,19,19,20,20,21,21,22,22,26,26,27,27,28,28,30,30,32,32,34,34,35,35,36,36,37,37,38,38,39,39,40,40,41,41,43,43,44,44,45,45,46,46,51,51,53,53],"right_children":[2,4,6,8,10,12,14,16,18,20,22,24,26,28,30,32,34,36,38,40,42,44,46,-1,-1,-1,48,50,52,-1,54,-1,56,-1,58,60,62,64,66,68,70,72,-1,74,76,78,80,-1,-1,-1,-1,82,-1,84,-1,-1,-1,-1,-1,-1,-1,-1,-1,-1,-1,-1,-1,-1,-1,-1,-1,-1,-1,-1,-1,-1,-1,-1,-1,-1,-1,-1,-1,-1,-1],"split_conditions":[9.426337E-7,9.4249776E-7,9.219E1,-5.8E0,2.858464E0,4E-1,4.6072E2,2.3623362E0,9.369529E-7,2.0571826E0,3.932175E0,7.639792E0,2.092996E0,9.4271456E-7,4.9217E2,9.375766E-7,2.5491176E0,3.0396E2,9.3767596E-7,9.746794E-1,7.7243E2,5.9401E2,4.874561E0,3.952907E-1,9.211278E-2,-2.6748604E-1,1.6E0,2.1340349E0,1E-1,3.7941316E-1,1.5177394E1,3.156795E-1,9.398783E-7,-3.529336E-1,9.374105E-7,2.7882E2,4.9217E2,9.376496E-7,9.377305E-7,1.2554E2,1.3188512E0,4.3538E2,3.803797E-1,3.8281333E0,1.66043E3,5.7126E2,1.5758E2,3.2121774E-2,2.567138E-1,1.0632555E-1,-4.998428E-2,1.0305E2,8.107512E-2,5.3605185E0,2.1157365E-1,-1.3707506E-2,2.1283777E-1,-8.899138E-2,7.639232E-2,-4.183262E-2,-2.4574262E-1,7.479959E-2,-2.1466387E-2,1.7549653E-2,1.6309303E-1,-1.079279E-1,-1.8294385E-3,1.9081058E-1,-2.2164963E-2,-4.1658953E-1,5.656594E-3,2.4151501E-1,-1.7630015E-1,7.808074E-2,-1.8880594E-1,-3.5424942E-1,-1.1340558E-1,-6.104059E-2,2.5247496E-1,-3.5271636E-1,-7.853546E-2,-8.7901436E-2,-3.4192717E-1,4.9141156E-3,-2.110912E-1],"split_indices":[4,4,1,3,2,0,1,2,4,2,2,2,2,4,1,4,2,1,4,2,1,1,2,0,0,0,0,2,3,0,2,0,4,0,4,1,1,4,4,1,2,1,0,2,1,1,1,0,0,0,0,1,0,2,0,0,0,0,0,0,0,0,0,0,0,0,0,0,0,0,0,0,0,0,0,0,0,0,0,0,0,0,0,0,0],"split_type":[0,0,0,0,0,0,0,0,0,0,0,0,0,0,0,0,0,0,0,0,0,0,0,0,0,0,0,0,0,0,0,0,0,0,0,0,0,0,0,0,0,0,0,0,0,0,0,0,0,0,0,0,0,0,0,0,0,0,0,0,0,0,0,0,0,0,0,0,0,0,0,0,0,0,0,0,0,0,0,0,0,0,0,0,0],"sum_hessian":[6.4810547E3,6.425886E3,5.516873E1,6.279734E3,1.4615242E2,1.2435685E1,4.2733047E1,8.640035E1,6.1933335E3,1.0947198E2,3.668045E1,7.76089E0,4.674795E0,1.2604285E1,3.0128761E1,2.1691168E1,6.470918E1,6.47132E2,5.546201E3,9.9503525E1,9.968452E0,1.7193287E1,1.9487164E1,6.356131E0,1.404759E0,1.1663475E0,3.5084474E0,3.616685E0,8.9876E0,4.9880977E0,2.5140663E1,2.7768123E0,1.8914354E1,3.1992838E0,6.15099E1,2.2552286E2,4.2160916E2,1.1549205E3,4.391281E3,9.0027306E1,9.476219E0,4.225636E0,5.7428164E0,5.2425404E0,1.1950747E1,7.48057E0,1.2006595E1,1.9201297E0,1.5883176E0,1.4978061E0,2.1188788E0,7.7558527E0,1.2317479E0,2.2961475E1,2.1791885E0,1.1329508E1,7.5848465E0,1.1480171E1,5.002973E1,2.1102773E2,1.4495121E1,1.1207748E2,3.0953168E2,1.1276753E3,2.7245218E1,6.894498E1,4.322336E3,3.2430797E0,8.6784225E1,4.481574E0,4.994645E0,2.2464583E0,1.9791775E0,3.9940534E0,1.2484868E0,9.214401E0,2.7363458E0,2.9968002E0,4.4837694E0,2.3754873E0,9.631107E0,1.175087E0,6.5807657E0,2.0829954E1,2.1315212E0],"tree_param":{"num_deleted":"0","num_feature":"7","num_nodes":"85","size_leaf_vector":"1"}},{"base_weights":[-3.3910906E-5,-3.701826E-4,2.538278E-1,1.0795759E-3,-1.8041937E-1,2.5609017E-3,-1.7894708E-1,3.715009E-1,-2.896734E-1,1.4805625E-1,9.4456313E-4,-6.429338E-1,4.0414866E-2,8.4159625E-1,-2.258176E-1,-9.8440343E-1,-1.4951621E-1,-2.136431E-1,3.228699E-1,-5.6583498E-2,7.208907E-3,-2.7978176E-1,-9.141278E-1,2.9741025E-1,-8.902847E-2,9.403352E-2,2.9046434E-1,9.203633E-2,-2.503661E-1,-5.3253055E-1,-4.1370872E-1,-5.347074E-1,-1.6374204E-2,8.008846E-2,-1.635661E-1,7.203306E-2,2.5748786E-1,1.2745711E-1,-2.0390254E-2,6.5646596E-2,1.3249015E-3,4.948711E-2,-2.3900346E-1,-1.4355004E-1,-3.5673678E-1,2.393004E-2,-2.4194558E-1,1.3297823E-1,-2.981612E-1,7.966413E-2,-2.0488201E-1,1.3738357E-1,-5.8540862E-2],"categories":[],"categories_nodes":[],"categories_segments":[],"categories_sizes":[],"default_left":[0,0,0,0,0,0,0,0,0,0,0,0,0,0,0,0,0,0,0,0,0,0,0,0,0,0,0,0,0,0,0,0,0,0,0,0,0,0,0,0,0,0,0,0,0,0,0,0,0,0,0,0,0],"id":6,"left_children":[1,3,-1,5,7,9,11,13,15,17,19,21,23,25,27,29,31,33,35,37,39,41,43,-1,45,-1,-1,-1,-1,47,-1,49,51,-1,-1,-1,-1,-1,-1,-1,-1,-1,-1,-1,-1,-1,-1,-1,-1,-1,-1,-1,-1],"loss_changes":[1.8431687E0,1.6904289E0,0E0,1.7137514E0,3.2268295E0,1.498627E0,5.3640366E0,2.7132561E0,4.112114E0,4.4960957E0,2.2722554E0,1.4081416E0,4.5875416E0,4.6936274E-2,1.7947227E0,5.4316044E-1,1.9184649E0,3.8769646E0,1.9031739E0,3.422378E0,3.3591065E0,2.1231222E0,5.368395E-1,0E0,4.071613E0,0E0,0E0,0E0,0E0,2.6774356E0,0E0,1.3226376E0,2.544676E0,0E0,0E0,0E0,0E0,0E0,0E0,0E0,0E0,0E0,0E0,0E0,0E0,0E0,0E0,0E0,0E0,0E0,0E0,0E0,0E0],"parents":[2147483647,0,0,1,1,3,3,4,4,5,5,6,6,7,7,8,8,9,9,10,10,11,11,12,12,13,13,14,14,15,15,16,16,17,17,18,18,19,19,20,20,21,21,22,22,24,24,29,29,31,31,32,32],"right_children":[2,4,-1,6,8,10,12,14,16,18,20,22,24,26,28,30,32,34,36,38,40,42,44,-1,46,-1,-1,-1,-1,48,-1,50,52,-1,-1,-1,-1,-1,-1,-1,-1,-1,-1,-1,-1,-1,-1,-1,-1,-1,-1,-1,-1],"split_conditions":[3.5E0,2.58002E3,2.538278E-1,7.9E0,9.3759684E-7,4.87E0,2.225E1,3.1304953E-1,-3E-1,9.3811315E-7,7.614E1,4.87E0,4.316E1,1.492995E-11,2.799E3,9.396549E-7,9.395675E-7,9.374272E-7,4.7E0,9.3665625E-7,9.219E1,9.3886973E-7,3.077935E0,2.9741025E-1,9.123184E0,9.403352E-2,2.9046434E-1,9.203633E-2,-2.503661E-1,-5.8E0,-4.1370872E-1,0E0,9.4033084E-7,8.008846E-2,-1.635661E-1,7.203306E-2,2.5748786E-1,1.2745711E-1,-2.0390254E-2,6.5646596E-2,1.3249015E-3,4.948711E-2,-2.3900346E-1,-1.4355004E-1,-3.5673678E-1,2.393004E-2,-2.4194558E-1,1.3297823E-1,-2.981612E-1,7.966413E-2,-2.0488201E-1,1.3738357E-1,-5.8540862E-2],"split_indices":[0,1,0,3,4,1,1,2,3,4,1,1,1,2,1,4,4,4,3,4,1,4,2,0,2,0,0,0,0,3,0,3,4,0,0,0,0,0,0,0,0,0,0,0,0,0,0,0,0,0,0,0,0],"split_type":[0,0,0,0,0,0,0,0,0,0,0,0,0,0,0,0,0,0,0,0,0,0,0,0,0,0,0,0,0,0,0,0,0,0,0,0,0,0,0,0,0,0,0,0,0,0,0,0,0,0,0,0,0],"sum_hessian":[6.475876E3,6.4743022E3,1.5734856E0,6.4235737E3,5.07287E1,6.3721274E3,5.1446445E1,7.9858937E0,4.2742805E1,6.90161E1,6.3031113E3,1.5894991E1,3.5551453E1,4.2400093E0,3.7458847E0,6.1642637E0,3.657854E1,2.2415348E1,4.660075E1,6.181698E2,5.6849414E3,7.6639595E0,8.231031E0,3.4616704E0,3.2089783E1,1.4920145E0,2.7479947E0,2.2624283E0,1.4834563E0,3.968976E0,2.1952877E0,8.621047E0,2.7957495E1,9.230734E0,1.3184615E1,4.1616573E1,4.984177E0,1.3440449E1,6.047293E2,7.303707E1,5.6119043E3,4.485498E0,3.1784616E0,4.245553E0,3.985478E0,2.669751E1,5.3922734E0,1.2866791E0,2.6822968E0,1.2236387E0,7.397408E0,7.2250633E0,2.0732431E1],"tree_param":{"num_deleted":"0","num_feature":"7","num_nodes":"53","size_leaf_vector":"1"}},{"base_weights":[-8.312978E-5,-3.6142208E-4,2.2642419E-1,1.6324578E-2,-1.2192029E-2,7.690877E-3,2.959347E-1,-2.32078E-1,-6.830775E-3,-7.489621E-2,1.8380042E-2,3.3281174E-1,-2.604268E-1,-3.2980245E-1,4.025062E-1,-2.9448286E-2,3.1484816E-2,-1.8197367E-1,8.462189E-2,-3.605449E-2,3.8664665E-2,2.7539966E-1,1.1721395E0,-1.7062539E-1,-3.5365722E-1,2.651751E-1,1.1657699E-1,2.805954E-3,-8.801838E-2,6.07379E-1,2.2867896E-2,2.0897894E-1,-6.256715E-2,2.3753949E-1,-7.4652564E-3,-4.906549E-3,-9.828546E-2,2.9859347E-2,-1.4643517E-3,9.3665645E-2,-3.1856203E-1,4.1238862E-1,1.3214506E-1,-9.671777E-2,1.0443474E-1,1.1297084E-1,-4.995521E-2,-2.9542837E-3,5.3445507E-2,-1.2461522E-2,-7.3821485E-2,3.689502E-1,1.2486062E-1,1.4731129E-1,4.1779852E-3],"categories":[],"categories_nodes":[],"categories_segments":[],"categories_sizes":[],"default_left":[0,0,0,0,0,0,0,0,0,0,0,0,0,0,0,0,0,0,0,0,0,0,0,0,0,0,0,0,0,0,0,0,0,0,0,0,0,0,0,0,0,0,0,0,0,0,0,0,0,0,0,0,0,0,0],"id":7,"left_children":[1,3,-1,5,7,9,11,13,15,17,19,21,-1,23,25,27,29,31,33,35,37,39,41,43,-1,-1,45,47,49,51,53,-1,-1,-1,-1,-1,-1,-1,-1,-1,-1,-1,-1,-1,-1,-1,-1,-1,-1,-1,-1,-1,-1,-1,-1],"loss_changes":[1.360447E0,1.2781382E0,0E0,6.4822636E0,4.46458E0,2.3025491E0,3.7414598E0,5.722908E0,3.2068298E0,5.1211576E0,2.550728E0,3.468771E0,0E0,1.04302025E1,1.6147752E0,4.3957796E0,6.8027315E0,4.3300166E0,9.370003E0,3.5976357E0,4.459895E0,4.0220337E0,9.5329285E-2,5.4195404E0,0E0,0E0,7.2375596E-1,3.3330326E0,6.060199E0,1.8932633E0,5.662866E0,0E0,0E0,0E0,0E0,0E0,0E0,0E0,0E0,0E0,0E0,0E0,0E0,0E0,0E0,0E0,0E0,0E0,0E0,0E0,0E0,0E0,0E0,0E0,0E0],"parents":[2147483647,0,0,1,1,3,3,4,4,5,5,6,6,7,7,8,8,9,9,10,10,11,11,13,13,14,14,15,15,16,16,17,17,18,18,19,19,20,20,21,21,22,22,23,23,26,26,27,27,28,28,29,29,30,30],"right_children":[2,4,-1,6,8,10,12,14,16,18,20,22,-1,24,26,28,30,32,34,36,38,40,42,44,-1,-1,46,48,50,52,54,-1,-1,-1,-1,-1,-1,-1,-1,-1,-1,-1,-1,-1,-1,-1,-1,-1,-1,-1,-1,-1,-1,-1,-1],"split_conditions":[3.5E0,9.3809643E-7,2.2642419E-1,9.380788E-7,9.3811315E-7,7.614E1,9.86533E0,1.182E3,7.3242E2,2.858464E0,9.369784E-7,7.5225973E0,-2.604268E-1,8.3436E2,4.248529E-1,9.402743E-7,7.3538E2,9.365624E-7,3.2520883E0,9.446151E0,4.1235E2,5.8807087E0,1.22777E3,6.0182E2,-3.5365722E-1,2.651751E-1,1.61789E3,7.8523397E0,6.1227E2,9.3937683E-7,9.381836E-7,2.0897894E-1,-6.256715E-2,2.3753949E-1,-7.4652564E-3,-4.906549E-3,-9.828546E-2,2.9859347E-2,-1.4643517E-3,9.3665645E-2,-3.1856203E-1,4.1238862E-1,1.3214506E-1,-9.671777E-2,1.0443474E-1,1.1297084E-1,-4.995521E-2,-2.9542837E-3,5.3445507E-2,-1.2461522E-2,-7.3821485E-2,3.689502E-1,1.2486062E-1,1.4731129E-1,4.1779852E-3],"split_indices":[0,4,0,4,4,1,2,1,1,2,4,2,0,1,2,4,1,4,2,2,1,2,1,1,0,0,1,2,1,4,4,0,0,0,0,0,0,0,0,0,0,0,0,0,0,0,0,0,0,0,0,0,0,0,0],"split_type":[0,0,0,0,0,0,0,0,0,0,0,0,0,0,0,0,0,0,0,0,0,0,0,0,0,0,0,0,0,0,0,0,0,0,0,0,0,0,0,0,0,0,0,0,0,0,0,0,0,0,0,0,0,0,0],"sum_hessian":[6.474062E3,6.4726753E3,1.3868369E0,2.6851436E3,3.7875317E3,2.6057126E3,7.9430756E1,8.914295E1,3.698389E3,2.9791812E2,2.3077944E3,7.768377E1,1.7469867E0,7.766328E1,1.1479672E1,2.3257444E3,1.3726444E3,1.7817581E2,1.19742325E2,6.263049E2,1.6814896E3,7.39533E1,3.7304685E0,6.641335E1,1.1249922E1,3.498301E0,7.981372E0,1.5004221E3,8.253223E2,1.921128E1,1.3534331E3,4.492635E0,1.7368318E2,1.5220385E1,1.0452194E2,5.876563E2,3.8648556E1,7.0074E2,9.8074963E2,7.271769E1,1.2356114E0,2.2335362E0,1.4969324E0,5.1673767E1,1.473959E1,3.988324E0,3.993048E0,1.4003143E3,1.0010778E2,6.3874445E2,1.865779E2,3.2374554E0,1.59738245E1,2.4353506E1,1.3290796E3],"tree_param":{"num_deleted":"0","num_feature":"7","num_nodes":"55","size_leaf_vector":"1"}},{"base_weights":[1.2386065E-4,5.107271E-3,-4.3112714E-2,-2.4295733E-3,8.440187E-2,-1.1702878E-1,1.2081919E-2,1.4099019E-3,-1.0874509E0,1.0930653E-2,2.7029997E-1,-1.4955549E-1,5.587006E-1,3.8010497E-2,-3.602914E-1,5.5267774E-3,-8.0716416E-2,-1.4383681E0,5.6993043E-1,1.349097E-1,-7.124456E-2,4.7223485E-1,1.08014844E-1,-1.00871384E-1,-4.9339196E-1,1.34172905E-2,9.897963E-1,-4.1133758E-2,1.3332677E-1,-2.704825E-2,-3.1987947E-1,-3.7220106E-4,2.1563275E-1,-5.5236135E-2,-3.8901877E-1,-4.6560854E-1,-6.6073E-1,3.4413072E-1,-3.3564314E-2,-7.189312E-1,1.7854534E-1,-3.9730182E-1,-1.7865592E-3,-2.8005034E-1,5.737421E-1,-9.917909E-1,2.0584674E-1,-1.1904289E-1,3.1163615E-1,-6.318766E-1,3.0390018E-1,9.145824E-1,-6.9601536E-1,4.4078717E-1,5.057296E-1,4.1989077E-2,-6.27464E-1,7.447671E-1,8.048365E-2,-3.4810734E-1,1.7913115E-1,-2.8186673E-3,1.8439624E-2,7.597104E-2,-2.7003032E-1,2.9256126E-2,-3.5832144E-2,-1.7580613E-3,-3.2840353E-1,6.603628E-2,-2.8553966E-1,6.084557E-2,-2.706501E-1,-3.69718E-1,-5.924691E-2,6.8846114E-2,-2.2140892E-2,-2.4602227E-1,1.5245548E-1,5.09688E-3,1.8225545E-1,4.2545185E-3,-3.846779E-1,2.6691896E-1,2.8711634E-2,-9.8191656E-2,-1.6573694E-2,6.844613E-2,-2.268678E-1,-2.5525138E-1,3.0351728E-1,3.285914E-1,9.623765E-2,-4.9712256E-2,-2.5491986E-1,-1.1483499E-1,2.882499E-1,-1.4198107E-2,1.0216035E-1,3.3133066E-1,-2.3028006E-1,-6.244935E-2,3.6768776E-1,1.2598144E-1,1.211683E-2,1.7785566E-1,-5.2181043E-2],"categories":[],"categories_nodes":[],"categories_segments":[],"categories_sizes":[],"default_left":[0,0,0,0,0,0,0,0,0,0,0,0,0,0,0,0,0,0,0,0,0,0,0,0,0,0,0,0,0,0,0,0,0,0,0,0,0,0,0,0,0,0,0,0,0,0,0,0,0,0,0,0,0,0,0,0,0,0,0,0,0,0,0,0,0,0,0,0,0,0,0,0,0,0,0,0,0,0,0,0,0,0,0,0,0,0,0,0,0,0,0,0,0,0,0,0,0,0,0,0,0,0,0,0,0,0,0],"id":8,"left_children":[1,3,5,7,9,11,13,15,17,19,21,23,25,27,29,31,33,35,37,39,41,43,45,47,49,51,53,55,57,59,-1,61,63,65,-1,-1,67,-1,-1,69,71,73,75,77,79,81,83,85,-1,87,89,91,93,-1,95,97,99,101,103,-1,105,-1,-1,-1,-1,-1,-1,-1,-1,-1,-1,-1,-1,-1,-1,-1,-1,-1,-1,-1,-1,-1,-1,-1,-1,-1,-1,-1,-1,-1,-1,-1,-1,-1,-1,-1,-1,-1,-1,-1,-1,-1,-1,-1,-1,-1,-1],"loss_changes":[1.3945554E0,3.4684806E0,2.73035E0,2.2083452E1,6.8773756E0,6.370613E0,3.7198045E0,1.7866242E0,1.1691118E1,3.69866E0,4.623947E0,4.5317497E0,3.1243773E0,2.7194662E0,5.8722525E0,6.2363977E0,7.744117E0,3.6305237E-1,1.6954778E0,5.5188804E0,4.945819E0,4.9918327E0,8.853698E0,5.114764E0,3.9117804E0,5.0524E0,9.839692E-1,9.643317E0,5.22101E0,4.4292154E0,0E0,2.7320518E0,5.9933004E0,2.445074E0,0E0,0E0,1.0577369E0,0E0,0E0,1.7912731E0,3.8147917E0,6.156146E0,3.03264E0,3.9045253E0,1.0441132E0,1.9872403E0,5.537794E0,3.14575E0,0E0,3.2769766E0,5.4877768E0,2.1496296E-2,2.2052312E-1,0E0,2.4816246E0,4.649379E0,6.8093157E0,6.157387E0,2.045844E0,0E0,2.4623735E0,0E0,0E0,0E0,0E0,0E0,0E0,0E0,0E0,0E0,0E0,0E0,0E0,0E0,0E0,0E0,0E0,0E0,0E0,0E0,0E0,0E0,0E0,0E0,0E0,0E0,0E0,0E0,0E0,0E0,0E0,0E0,0E0,0E0,0E0,0E0,0E0,0E0,0E0,0E0,0E0,0E0,0E0,0E0,0E0,0E0,0E0],"parents":[2147483647,0,0,1,1,2,2,3,3,4,4,5,5,6,6,7,7,8,8,9,9,10,10,11,11,12,12,13,13,14,14,15,15,16,16,17,17,18,18,19,19,20,20,21,21,22,22,23,23,24,24,25,25,26,26,27,27,28,28,29,29,31,31,32,32,33,33,36,36,39,39,40,40,41,41,42,42,43,43,44,44,45,45,46,46,47,47,49,49,50,50,51,51,52,52,54,54,55,55,56,56,57,57,58,58,60,60],"right_children":[2,4,6,8,10,12,14,16,18,20,22,24,26,28,30,32,34,36,38,40,42,44,46,48,50,52,54,56,58,60,-1,62,64,66,-1,-1,68,-1,-1,70,72,74,76,78,80,82,84,86,-1,88,90,92,94,-1,96,98,100,102,104,-1,106,-1,-1,-1,-1,-1,-1,-1,-1,-1,-1,-1,-1,-1,-1,-1,-1,-1,-1,-1,-1,-1,-1,-1,-1,-1,-1,-1,-1,-1,-1,-1,-1,-1,-1,-1,-1,-1,-1,-1,-1,-1,-1,-1,-1,-1,-1],"split_conditions":[6.9927406E0,5.155008E0,8.994654E0,5.109372E0,8.3436E2,3.4E0,1E-1,1.70899E3,9.4153137E-7,9.3792397E-7,1.182E3,8.647233E0,1.5758E2,6.7625E2,2.1861E2,1.46944E3,4.8318324E0,9.3946335E-7,5.7126E2,1.095E1,9.383147E-7,5.30375E0,1.22777E3,9.426132E-7,1.54437E3,9.3712765E-7,2.0985E2,5.9712E2,6.9359E2,9.376496E-7,-3.1987947E-1,3.4883263E0,9.4251106E-7,3.077935E-2,-3.8901877E-1,-4.6560854E-1,9.408599E-7,3.4413072E-1,-3.3564314E-2,9.3688794E-7,7.9463E2,3.103E1,1.9754E2,9.399596E-7,9.36558E-7,5.406867E0,1.29813E3,9.3742983E-7,3.1163615E-1,8.028E1,8.824027E0,6E0,9.378395E-7,4.4078717E-1,2.6913E2,4.7214E2,9.123184E0,9.3712765E-7,9.370732E-7,-3.4810734E-1,1.1651085E1,-2.8186673E-3,1.8439624E-2,7.597104E-2,-2.7003032E-1,2.9256126E-2,-3.5832144E-2,-1.7580613E-3,-3.2840353E-1,6.603628E-2,-2.8553966E-1,6.084557E-2,-2.706501E-1,-3.69718E-1,-5.924691E-2,6.8846114E-2,-2.2140892E-2,-2.4602227E-1,1.5245548E-1,5.09688E-3,1.8225545E-1,4.2545185E-3,-3.846779E-1,2.6691896E-1,2.8711634E-2,-9.8191656E-2,-1.6573694E-2,6.844613E-2,-2.268678E-1,-2.5525138E-1,3.0351728E-1,3.285914E-1,9.623765E-2,-4.9712256E-2,-2.5491986E-1,-1.1483499E-1,2.882499E-1,-1.4198107E-2,1.0216035E-1,3.3133066E-1,-2.3028006E-1,-6.244935E-2,3.6768776E-1,1.2598144E-1,1.211683E-2,1.7785566E-1,-5.2181043E-2],"split_indices":[2,2,2,2,1,3,3,1,4,4,1,2,1,1,1,1,2,4,1,1,4,2,1,4,1,4,1,1,1,4,0,2,4,2,0,0,4,0,0,4,1,1,1,4,4,2,1,4,0,1,2,3,4,0,1,1,2,4,4,0,2,0,0,0,0,0,0,0,0,0,0,0,0,0,0,0,0,0,0,0,0,0,0,0,0,0,0,0,0,0,0,0,0,0,0,0,0,0,0,0,0,0,0,0,0,0,0],"split_type":[0,0,0,0,0,0,0,0,0,0,0,0,0,0,0,0,0,0,0,0,0,0,0,0,0,0,0,0,0,0,0,0,0,0,0,0,0,0,0,0,0,0,0,0,0,0,0,0,0,0,0,0,0,0,0,0,0,0,0,0,0,0,0,0,0,0,0,0,0,0,0,0,0,0,0,0,0,0,0,0,0,0,0,0,0,0,0,0,0,0,0,0,0,0,0,0,0,0,0,0,0,0,0,0,0,0,0],"sum_hessian":[6.470267E3,5.8023726E3,6.678946E2,5.29962E3,5.0275235E2,2.85045E2,3.8284955E2,5.281928E3,1.7692022E1,3.610972E2,1.4165514E2,2.7269724E2,1.2347799E1,3.5876636E2,2.4083193E1,5.03068E3,2.5124812E2,1.4709685E1,2.9823368E0,1.4368127E2,2.1741594E2,6.226614E1,7.9389E1,2.4000769E2,3.268953E1,5.907128E0,6.4406714E0,1.9632207E2,1.6244427E2,1.7065853E1,7.01734E0,4.8942656E3,1.3641417E2,2.471155E2,4.1326237E0,1.196504E1,2.7446454E0,1.245529E0,1.7368077E0,6.233397E0,1.3744788E2,3.735237E1,1.8006357E2,7.193695E0,5.5072445E1,5.738645E0,7.365035E1,2.3712239E2,2.8852987E0,2.8028608E1,4.6609225E0,2.474584E0,3.4325435E0,2.213135E0,4.227536E0,1.727588E2,2.3563274E1,1.1880677E1,1.505636E2,1.9144982E0,1.5151355E1,4.2717754E3,6.2249023E2,1.3271428E2,3.699892E0,7.297431E1,1.7414117E2,1.4978102E0,1.2468351E0,1.249491E0,4.983906E0,1.3522304E2,2.2248344E0,6.2139854E0,3.1138388E1,4.2237007E1,1.3782657E2,4.245019E0,2.948676E0,3.2359066E0,5.1836536E1,1.4988599E0,4.239785E0,9.234423E0,6.441593E1,5.463595E1,1.8248645E2,3.4351923E0,2.4593416E1,1.6944935E0,2.966429E0,1.2496499E0,1.2249343E0,1.238356E0,2.1941876E0,1.4857562E0,2.74178E0,1.3362389E2,3.9134907E1,1.2487843E0,2.2314491E1,4.174684E0,7.705993E0,1.4904243E1,1.3565935E2,6.6637287E0,8.487626E0],"tree_param":{"num_deleted":"0","num_feature":"7","num_nodes":"107","size_leaf_vector":"1"}},{"base_weights":[-8.812449E-5,-1.3651836E-3,1.5027393E-1,4.2666882E-4,-1.1564881E-1,5.794657E-1,2.1588981E-2,2.3975176E-1,-9.1898505E-4,-3.560293E-1,3.0924587E-2,9.212722E-1,5.212099E-2,-4.6640778E-1,2.3077972E-1,5.12308E-1,-5.349224E-2,-1.8407438E-3,3.4005526E-1,-6.3551027E-1,8.193137E-2,1.4029314E-1,-3.021309E-1,3.7037063E-1,3.9545804E-1,-2.093344E-1,5.0660175E-1,1.1705523E-1,-6.9050556E-1,3.0167186E-1,5.0221756E-2,-1.17916524E-1,6.6637194E-1,-2.508731E-1,2.0998943E-1,-3.791926E-2,3.1446633E-3,1.0955861E0,-3.5277255E-2,-6.056441E-2,-9.863489E-1,3.7360567E-1,-7.265936E-1,3.1249227E-2,1.1823806E0,-6.409197E-1,1.932628E-1,2.5809607E-2,1.4473732E-1,2.0860574E-1,-7.981809E-3,1.0952839E-1,-8.1384175E-2,-8.2796454E-1,4.825891E-2,-1.7071003E-1,1.235186E-1,-3.2858017E-1,1.8028164E-1,5.0917476E-2,3.0121383E-1,2.4998413E-1,-3.44707E-2,-3.8637187E-2,1.6928732E-2,5.520157E-2,-6.2946114E-5,3.3095527E-2,4.030168E-1,2.792999E-1,-1.1047318E-1,-2.2460206E-1,1.00114584E-1,-3.7037864E-1,-9.2154466E-2,1.6935334E-1,-2.2496195E-1,1.0558224E-1,-3.7418798E-1,4.574931E-2,-2.851318E-1,1.3786186E-1,4.1674137E-1,-3.929665E-2,-2.804099E-1,-1.9183452E-1,1.4321734E-1,-8.994566E-2,5.7735E-2,-3.0024496E-1,-1.110925E-1,-3.555446E-2,1.4391987E-1],"categories":[],"categories_nodes":[],"categories_segments":[],"categories_sizes":[],"default_left":[0,0,0,0,0,0,0,0,0,0,0,0,0,0,0,0,0,0,0,0,0,0,0,0,0,0,0,0,0,0,0,0,0,0,0,0,0,0,0,0,0,0,0,0,0,0,0,0,0,0,0,0,0,0,0,0,0,0,0,0,0,0,0,0,0,0,0,0,0,0,0,0,0,0,0,0,0,0,0,0,0,0,0,0,0,0,0,0,0,0,0,0,0],"id":9,"left_children":[1,3,5,7,9,11,13,15,17,19,21,23,25,27,29,31,33,35,37,39,41,43,45,-1,47,-1,49,51,53,-1,55,57,59,-1,61,63,65,67,69,71,73,75,77,79,81,83,85,-1,-1,-1,-1,-1,87,89,-1,-1,91,-1,-1,-1,-1,-1,-1,-1,-1,-1,-1,-1,-1,-1,-1,-1,-1,-1,-1,-1,-1,-1,-1,-1,-1,-1,-1,-1,-1,-1,-1,-1,-1,-1,-1,-1,-1],"loss_changes":[1.2413106E0,1.3126719E0,2.994329E0,2.0329857E0,3.497479E0,2.2085848E0,4.4893365E0,2.848436E0,1.9736773E0,4.64976E0,2.315038E0,7.5321674E-1,2.3927257E0,1.8080497E0,4.2460237E0,1.8639274E0,3.8689744E0,1.1263965E0,4.8396225E0,4.5885496E0,3.9310737E0,5.377774E0,2.7656379E0,0E0,7.38439E-2,0E0,4.5175803E-1,2.5222898E-1,1.2670822E0,0E0,1.2486191E0,3.7928562E0,2.3327537E0,0E0,2.970754E0,6.5256724E0,3.3383493E0,1.2313342E0,4.293731E0,2.9081879E0,2.022605E0,3.0109158E0,2.9401028E0,5.4017196E0,3.2185078E-2,1.3126295E0,1.9995399E0,0E0,0E0,0E0,0E0,0E0,2.5683683E-1,3.0218077E-1,0E0,0E0,2.1290169E0,0E0,0E0,0E0,0E0,0E0,0E0,0E0,0E0,0E0,0E0,0E0,0E0,0E0,0E0,0E0,0E0,0E0,0E0,0E0,0E0,0E0,0E0,0E0,0E0,0E0,0E0,0E0,0E0,0E0,0E0,0E0,0E0,0E0,0E0,0E0,0E0],"parents":[2147483647,0,0,1,1,2,2,3,3,4,4,5,5,6,6,7,7,8,8,9,9,10,10,11,11,12,12,13,13,14,14,15,15,16,16,17,17,18,18,19,19,20,20,21,21,22,22,24,24,26,26,27,27,28,28,30,30,31,31,32,32,34,34,35,35,36,36,37,37,38,38,39,39,40,40,41,41,42,42,43,43,44,44,45,45,46,46,52,52,53,53,56,56],"right_children":[2,4,6,8,10,12,14,16,18,20,22,24,26,28,30,32,34,36,38,40,42,44,46,-1,48,-1,50,52,54,-1,56,58,60,-1,62,64,66,68,70,72,74,76,78,80,82,84,86,-1,-1,-1,-1,-1,88,90,-1,-1,92,-1,-1,-1,-1,-1,-1,-1,-1,-1,-1,-1,-1,-1,-1,-1,-1,-1,-1,-1,-1,-1,-1,-1,-1,-1,-1,-1,-1,-1,-1,-1,-1,-1,-1,-1,-1],"split_conditions":[9.426337E-7,1.4142057E1,9.219E1,9.364528E-7,3.8873E2,2E-1,4.6072E2,5.0881E2,1.3571932E1,9.397759E-7,1.00628E3,5.3605185E0,2.7393622E0,9.4271456E-7,4.9217E2,2.4852E2,7.5807E2,9.370495E-7,2.6541E2,8.67E1,2.246188E1,8.6441E2,9.3874723E-7,3.7037063E-1,2.487E1,-2.093344E-1,6.32333E0,2.059E2,1E-1,3.0167186E-1,-3E0,8.994654E0,4.385319E0,-2.508731E-1,1.05942E3,1.046498E0,9.3712765E-7,1.0305E2,9.374993E-7,9.3779204E-7,1.9344833E1,9.408599E-7,9.39957E-7,8.0439E2,9.3604E2,1.6272919E1,1.6272919E1,2.5809607E-2,1.4473732E-1,2.0860574E-1,-7.981809E-3,1.0952839E-1,4.5737925E0,1.848E2,4.825891E-2,-1.7071003E-1,6.9359E2,-3.2858017E-1,1.8028164E-1,5.0917476E-2,3.0121383E-1,2.4998413E-1,-3.44707E-2,-3.8637187E-2,1.6928732E-2,5.520157E-2,-6.2946114E-5,3.3095527E-2,4.030168E-1,2.792999E-1,-1.1047318E-1,-2.2460206E-1,1.00114584E-1,-3.7037864E-1,-9.2154466E-2,1.6935334E-1,-2.2496195E-1,1.0558224E-1,-3.7418798E-1,4.574931E-2,-2.851318E-1,1.3786186E-1,4.1674137E-1,-3.929665E-2,-2.804099E-1,-1.9183452E-1,1.4321734E-1,-8.994566E-2,5.7735E-2,-3.0024496E-1,-1.110925E-1,-3.555446E-2,1.4391987E-1],"split_indices":[4,2,1,4,1,0,1,1,2,4,1,2,2,4,1,1,1,4,1,1,2,1,4,0,1,0,2,1,3,0,3,2,2,0,1,2,4,1,4,4,2,4,4,1,1,2,2,0,0,0,0,0,2,1,0,0,1,0,0,0,0,0,0,0,0,0,0,0,0,0,0,0,0,0,0,0,0,0,0,0,0,0,0,0,0,0,0,0,0,0,0,0,0],"split_type":[0,0,0,0,0,0,0,0,0,0,0,0,0,0,0,0,0,0,0,0,0,0,0,0,0,0,0,0,0,0,0,0,0,0,0,0,0,0,0,0,0,0,0,0,0,0,0,0,0,0,0,0,0,0,0,0,0,0,0,0,0,0,0,0,0,0,0,0,0,0,0,0,0,0,0,0,0,0,0,0,0,0,0,0,0,0,0,0,0,0,0,0,0],"sum_hessian":[6.462376E3,6.408934E3,5.344162E1,6.3109805E3,9.795357E1,1.1519302E1,4.1922314E1,3.4295773E1,6.276685E3,3.656232E1,6.139125E1,6.535935E0,4.983368E0,1.2209833E1,2.9712482E1,1.7387701E1,1.6908073E1,6.260755E3,1.5930154E1,2.2044035E1,1.4518284E1,4.6650845E1,1.4740404E1,3.250981E0,3.2849536E0,1.6784894E0,3.3048785E0,3.520774E0,8.689059E0,4.7519813E0,2.49605E1,3.461692E0,1.3926009E1,3.7106507E0,1.3197422E1,7.592912E2,5.5014634E3,4.6502976E0,1.1279857E1,8.798272E0,1.3245764E1,1.1064646E1,3.4536388E0,4.3164143E1,3.4867034E0,8.5793915E0,6.161013E0,1.1573961E0,2.1275575E0,2.2162526E0,1.0886259E0,1.1915573E0,2.3292167E0,7.504843E0,1.1842158E0,1.925905E0,2.3034595E1,1.2451577E0,2.2165344E0,6.2444205E0,7.6815886E0,3.9858825E0,9.211539E0,3.865865E2,3.727047E2,9.919884E1,5.4022646E3,1.2249742E0,3.4253235E0,2.430478E0,8.849379E0,2.8775113E0,5.9207606E0,9.10129E0,4.1444736E0,9.88285E0,1.1817955E0,1.2300057E0,2.223633E0,3.917081E1,3.9933336E0,1.4922553E0,1.9944481E0,3.6645296E0,4.9148617E0,1.2492379E0,4.9117756E0,1.2428867E0,1.0863299E0,4.5859485E0,2.9188948E0,1.4112802E1,8.921794E0],"tree_param":{"num_deleted":"0","num_feature":"7","num_nodes":"93","size_leaf_vector":"1"}},{"base_weights":[-2.5830459E-5,-2.3028217E-2,7.183932E-3,-3.6050435E-4,-2.749959E-1,2.5221306E-1,3.2892309E-3,5.092063E-2,-4.5411974E-2,-3.857968E-1,-1.0158741E-1,-1.4400284E-1,2.754556E-1,-8.568949E-2,7.706888E-3,-9.894076E-2,7.8743376E-2,-2.2493799E-1,-2.6328603E-2,-4.5752555E-1,1.2849696E-1,-6.338094E-3,-9.2246413E-1,1.078902E0,2.221523E-1,7.510257E-1,-1.0172961E-1,6.129679E-1,4.254042E-3,-7.1743464E-1,-6.3924834E-2,2.4611333E-1,4.4894423E-2,-4.2510697E-1,3.9190215E-1,2.873404E-1,-3.96625E-2,-2.7551508E-1,-9.4863117E-1,-3.677485E-1,4.116124E-1,-6.0774183E-1,5.6379627E-2,-3.3602554E-1,-1.0444858E-1,9.0850726E-2,4.38047E-1,2.8286502E-1,-2.7005312E-1,3.9543062E-2,2.8364465E-1,-2.5362676E-1,5.37024E-3,8.8595045E-1,-1.2005219E-2,4.6022587E-2,-4.3642665E-3,-9.948133E-3,-2.896522E-1,2.5970655E-2,-7.102899E-2,3.1324152E-2,1.9639187E-1,3.21627E-2,-2.8060818E-2,8.277825E-3,-1.8927957E-1,-2.9303077E-1,1.861456E-1,3.5691593E-2,2.6607156E-1,1.4200842E-1,-1.4104408E-2,-1.4365304E-1,9.45145E-2,-3.1615388E-1,7.761323E-2,1.0266231E-3,-2.0984375E-1,3.2092416E-1,2.4804864E-2,-7.942444E-2,-2.3268856E-1,9.193902E-2,-5.632805E-2,5.3380925E-2,2.1838544E-1,-1.7428418E-1,1.0435042E-1,-6.4374395E-2,-4.0753064E-1,2.5634617E-2,-7.821682E-2,2.930794E-1,1.6656467E-1,-3.8067916E-1,2.5049877E-1,-1.0063249E-2,4.274513E-2,-1.5858547E-1,-1.8835747E-4],"categories":[],"categories_nodes":[],"categories_segments":[],"categories_sizes":[],"default_left":[0,0,0,0,0,0,0,0,0,0,0,0,0,0,0,0,0,0,0,0,0,0,0,0,0,0,0,0,0,0,0,0,0,0,0,0,0,0,0,0,0,0,0,0,0,0,0,0,0,0,0,0,0,0,0,0,0,0,0,0,0,0,0,0,0,0,0,0,0,0,0,0,0,0,0,0,0,0,0,0,0,0,0,0,0,0,0,0,0,0,0,0,0,0,0,0,0,0,0,0,0],"id":10,"left_children":[1,3,5,7,9,11,13,15,17,19,21,-1,23,25,27,29,31,33,35,37,39,41,43,45,47,49,51,53,55,57,59,61,63,65,67,69,71,73,75,77,79,81,83,-1,-1,-1,-1,85,87,-1,-1,89,91,93,95,97,99,-1,-1,-1,-1,-1,-1,-1,-1,-1,-1,-1,-1,-1,-1,-1,-1,-1,-1,-1,-1,-1,-1,-1,-1,-1,-1,-1,-1,-1,-1,-1,-1,-1,-1,-1,-1,-1,-1,-1,-1,-1,-1,-1,-1],"loss_changes":[1.071443E0,8.805664E0,4.6933374E0,3.2725303E0,2.4057846E0,1.4417844E0,1.9043099E0,2.7699246E0,2.5774176E0,2.9097672E0,3.9791644E0,0E0,2.9815645E0,3.1518774E0,9.641703E0,2.2102401E0,3.157433E0,9.096125E0,2.866858E0,5.820816E0,1.5900686E0,1.7947818E0,2.1065283E-1,8.656993E-1,2.2218802E0,4.0874887E-1,3.6734812E0,4.4753695E0,1.6523435E0,8.9888144E-1,2.6135342E0,5.3649282E0,4.033482E0,5.149703E0,6.3122063E0,2.7170095E0,2.4957123E0,6.281337E0,2.5578804E0,5.2545303E-1,1.4252127E0,5.3364277E-2,2.6940494E0,0E0,0E0,0E0,0E0,2.8781457E0,1.8147521E0,0E0,0E0,3.7359223E0,2.8640099E0,6.0634613E-3,1.0579728E1,6.030555E0,7.453997E0,0E0,0E0,0E0,0E0,0E0,0E0,0E0,0E0,0E0,0E0,0E0,0E0,0E0,0E0,0E0,0E0,0E0,0E0,0E0,0E0,0E0,0E0,0E0,0E0,0E0,0E0,0E0,0E0,0E0,0E0,0E0,0E0,0E0,0E0,0E0,0E0,0E0,0E0,0E0,0E0,0E0,0E0,0E0,0E0],"parents":[2147483647,0,0,1,1,2,2,3,3,4,4,5,5,6,6,7,7,8,8,9,9,10,10,12,12,13,13,14,14,15,15,16,16,17,17,18,18,19,19,20,20,21,21,22,22,23,23,24,24,25,25,26,26,27,27,28,28,29,29,30,30,31,31,32,32,33,33,34,34,35,35,36,36,37,37,38,38,39,39,40,40,41,41,42,42,47,47,48,48,51,51,52,52,53,53,54,54,55,55,56,56],"right_children":[2,4,6,8,10,12,14,16,18,20,22,-1,24,26,28,30,32,34,36,38,40,42,44,46,48,50,52,54,56,58,60,62,64,66,68,70,72,74,76,78,80,82,84,-1,-1,-1,-1,86,88,-1,-1,90,92,94,96,98,100,-1,-1,-1,-1,-1,-1,-1,-1,-1,-1,-1,-1,-1,-1,-1,-1,-1,-1,-1,-1,-1,-1,-1,-1,-1,-1,-1,-1,-1,-1,-1,-1,-1,-1,-1,-1,-1,-1,-1,-1,-1,-1,-1,-1],"split_conditions":[2.3319E2,2.0985E2,2.4479E2,3.1304953E-1,2.2364E2,9.3657997E-7,2.7685E2,9.3726027E-7,1.2722131E0,9.404803E-7,6.4528165E0,-1.4400284E-1,9.367835E-7,9.364528E-7,2.7882E2,1.319E1,9.375124E-7,1.6298E2,9.3670104E-7,9.3826276E-7,1.492995E-11,9.3670104E-7,1.0474928E1,2.3778E2,4.9823265E0,5.406867E0,9.380507E-7,2.5936105E0,4.1235E2,9.3657997E-7,1.3095E2,1.477E2,1.477E2,1.194E1,4.248529E-1,1.7708E2,-3E-1,9.380788E-7,6.4528165E0,9.411229E-7,2.5211735E0,3.077935E-2,9.380788E-7,-3.3602554E-1,-1.0444858E-1,9.0850726E-2,4.38047E-1,2.7644358E0,7.8523397E0,3.9543062E-2,2.8364465E-1,9.380146E-7,2.6913E2,9.381246E-7,5.0635333E0,3.4897E2,4.1852E2,-9.948133E-3,-2.896522E-1,2.5970655E-2,-7.102899E-2,3.1324152E-2,1.9639187E-1,3.21627E-2,-2.8060818E-2,8.277825E-3,-1.8927957E-1,-2.9303077E-1,1.861456E-1,3.5691593E-2,2.6607156E-1,1.4200842E-1,-1.4104408E-2,-1.4365304E-1,9.45145E-2,-3.1615388E-1,7.761323E-2,1.0266231E-3,-2.0984375E-1,3.2092416E-1,2.4804864E-2,-7.942444E-2,-2.3268856E-1,9.193902E-2,-5.632805E-2,5.3380925E-2,2.1838544E-1,-1.7428418E-1,1.0435042E-1,-6.4374395E-2,-4.0753064E-1,2.5634617E-2,-7.821682E-2,2.930794E-1,1.6656467E-1,-3.8067916E-1,2.5049877E-1,-1.0063249E-2,4.274513E-2,-1.5858547E-1,-1.8835747E-4],"split_indices":[1,1,1,2,1,4,1,4,2,4,2,0,4,4,1,1,4,1,4,4,2,4,2,1,2,2,4,2,1,4,1,1,1,1,2,1,3,4,2,4,2,2,4,0,0,0,0,2,2,0,0,4,1,4,2,1,1,0,0,0,0,0,0,0,0,0,0,0,0,0,0,0,0,0,0,0,0,0,0,0,0,0,0,0,0,0,0,0,0,0,0,0,0,0,0,0,0,0,0,0,0],"split_type":[0,0,0,0,0,0,0,0,0,0,0,0,0,0,0,0,0,0,0,0,0,0,0,0,0,0,0,0,0,0,0,0,0,0,0,0,0,0,0,0,0,0,0,0,0,0,0,0,0,0,0,0,0,0,0,0,0,0,0,0,0,0,0,0,0,0,0,0,0,0,0,0,0,0,0,0,0,0,0,0,0,0,0,0,0,0,0,0,0,0,0,0,0,0,0,0,0,0,0,0,0],"sum_hessian":[6.4586377E3,1.5407518E3,4.9178857E3,1.4145009E3,1.26251E2,7.594844E1,4.841937E3,6.614528E2,7.5304803E2,7.628392E1,4.9967075E1,1.7320026E0,7.421644E1,2.2815387E2,4.613783E3,1.03173615E2,5.582792E2,7.132009E1,6.8172797E2,6.704369E1,9.2402315E0,4.5674965E1,4.292111E0,3.4203482E0,7.079609E1,3.4296234E0,2.2472424E2,2.5169735E1,4.588614E3,4.483943E0,9.8689674E1,9.285858E1,4.654206E2,5.4081196E1,1.72389E1,2.6960257E1,6.547677E2,5.0054E1,1.6989689E1,3.2480705E0,5.992161E0,3.492743E0,4.218222E1,2.4862397E0,1.8058714E0,1.7178587E0,1.7024896E0,6.340099E1,7.3950953E0,1.2206136E0,2.20901E0,9.236171E1,1.3236253E2,1.7227386E1,7.942348E0,7.84107E2,3.8045066E3,1.494698E0,2.989245E0,5.3021767E1,4.5667908E1,6.987697E1,2.2981611E1,3.2110193E2,1.4431868E2,1.7173979E1,3.6907215E1,1.9986397E0,1.5240258E1,2.1984928E1,4.9753275E0,8.355435E0,6.4641223E2,3.7375095E1,1.26789055E1,1.5744734E1,1.2449558E0,1.9999869E0,1.2480836E0,1.2463027E0,4.745858E0,1.9946349E0,1.4981081E0,2.0711346E1,2.1470875E1,5.2438465E1,1.0962526E1,4.959485E0,2.4356103E0,9.03624E1,1.9993087E0,1.0226547E2,3.0097073E1,1.1978453E1,5.2489347E0,2.9968958E0,4.945452E0,4.3003857E2,3.5406845E2,2.5929087E1,3.7785774E3],"tree_param":{"num_deleted":"0","num_feature":"7","num_nodes":"101","size_leaf_vector":"1"}},{"base_weights":[-5.8301717E-5,-2.8710568E-4,2.0282744E-1,7.64454E-4,-1.319659E-1,1.18841134E-1,-5.260102E-4,-4.9742442E-1,4.2241126E-2,2.6992744E-1,-1.264154E-1,-9.887471E-2,1.4081928E-3,-2.9382423E-1,-9.716491E-1,2.0528653E-1,-4.9354526E-1,1.5188241E-2,4.7683993E-1,-4.174845E-1,1.356523E-1,4.6025094E-2,-3.1694186E-1,5.516743E-3,-3.54857E-2,-6.965875E-1,3.0453274E-1,-3.7051547E-1,-2.7951678E-2,-8.475078E-3,8.5992754E-1,-1.0664573E0,2.9360807E-1,-1.0865478E-1,1.9499375E-1,8.46778E-2,2.6687694E-1,7.3584295E-3,-3.0360663E-1,1.5551263E-1,-5.7154138E-2,1.2554002E-1,-5.278754E-2,-2.3629482E-1,-8.918964E-3,1.1896942E-3,7.843639E-2,-5.737121E-2,-2.5995886E-3,2.0098338E-2,-2.9819396E-1,1.928461E-1,-1.6452959E-1,4.9922958E-2,-3.672533E-1,3.7880242E-1,1.4325611E-1,-3.8632023E-1,-5.2970346E-2,2.5935462E-1,-8.614408E-2],"categories":[],"categories_nodes":[],"categories_segments":[],"categories_sizes":[],"default_left":[0,0,0,0,0,0,0,0,0,0,0,0,0,0,0,0,0,0,0,0,0,0,0,0,0,0,0,0,0,0,0,0,0,0,0,0,0,0,0,0,0,0,0,0,0,0,0,0,0,0,0,0,0,0,0,0,0,0,0,0,0],"id":11,"left_children":[1,3,-1,5,7,9,11,13,15,17,19,21,23,25,27,29,31,33,35,37,39,41,43,45,47,49,51,-1,-1,53,55,57,59,-1,-1,-1,-1,-1,-1,-1,-1,-1,-1,-1,-1,-1,-1,-1,-1,-1,-1,-1,-1,-1,-1,-1,-1,-1,-1,-1,-1],"loss_changes":[9.9890405E-1,8.938242E-1,0E0,9.758975E-1,3.2769017E0,2.5997927E0,1.2054098E0,1.3159928E0,3.207215E0,2.2678983E0,2.1219304E0,3.8764515E0,9.4223195E-1,3.3542466E0,9.3747044E-1,3.9206276E0,4.1864424E0,5.1172814E0,1.6591678E0,3.460343E0,1.9715006E0,6.216557E0,6.589919E0,2.2192528E0,2.6002707E0,1.9052517E0,2.0668511E0,0E0,0E0,4.8962946E0,4.58735E-1,7.939677E-1,1.7077873E0,0E0,0E0,0E0,0E0,0E0,0E0,0E0,0E0,0E0,0E0,0E0,0E0,0E0,0E0,0E0,0E0,0E0,0E0,0E0,0E0,0E0,0E0,0E0,0E0,0E0,0E0,0E0,0E0],"parents":[2147483647,0,0,1,1,3,3,4,4,5,5,6,6,7,7,8,8,9,9,10,10,11,11,12,12,13,13,14,14,15,15,16,16,17,17,18,18,19,19,20,20,21,21,22,22,23,23,24,24,25,25,26,26,29,29,30,30,31,31,32,32],"right_children":[2,4,-1,6,8,10,12,14,16,18,20,22,24,26,28,30,32,34,36,38,40,42,44,46,48,50,52,-1,-1,54,56,58,60,-1,-1,-1,-1,-1,-1,-1,-1,-1,-1,-1,-1,-1,-1,-1,-1,-1,-1,-1,-1,-1,-1,-1,-1,-1,-1,-1,-1],"split_conditions":[3.5E0,7.9E0,2.0282744E-1,4.87E0,2.225E1,3.706676E0,1.095E1,9.395675E-7,4.3538E2,9.3843624E-7,5.8807087E0,8.74E0,6.9927406E0,9.381246E-7,1.03E1,3.1102E2,9.3923126E-7,1.9395876E0,2E0,5.026247E0,7.639792E0,9.381246E-7,9.385569E-7,6.8279533E0,7.5225973E0,3.72E0,4.5737925E0,-3.7051547E-1,-2.7951678E-2,2.6913E2,3.4481E2,5.7184744E0,9.411946E-7,-1.0865478E-1,1.9499375E-1,8.46778E-2,2.6687694E-1,7.3584295E-3,-3.0360663E-1,1.5551263E-1,-5.7154138E-2,1.2554002E-1,-5.278754E-2,-2.3629482E-1,-8.918964E-3,1.1896942E-3,7.843639E-2,-5.737121E-2,-2.5995886E-3,2.0098338E-2,-2.9819396E-1,1.928461E-1,-1.6452959E-1,4.9922958E-2,-3.672533E-1,3.7880242E-1,1.4325611E-1,-3.8632023E-1,-5.2970346E-2,2.5935462E-1,-8.614408E-2],"split_indices":[0,3,0,1,1,2,1,4,1,4,2,1,2,4,3,1,4,2,3,2,2,4,4,2,2,1,2,0,0,1,1,2,4,0,0,0,0,0,0,0,0,0,0,0,0,0,0,0,0,0,0,0,0,0,0,0,0,0,0,0,0],"split_type":[0,0,0,0,0,0,0,0,0,0,0,0,0,0,0,0,0,0,0,0,0,0,0,0,0,0,0,0,0,0,0,0,0,0,0,0,0,0,0,0,0,0,0,0,0,0,0,0,0,0,0,0,0,0,0,0,0,0,0,0,0],"sum_hessian":[6.4545454E3,6.4533613E3,1.1841934E0,6.4032207E3,5.0140602E1,6.8239685E1,6.334981E3,1.5586743E1,3.455386E1,4.2164402E1,2.6075287E1,1.21219055E2,6.213762E3,1.2038017E1,3.5487263E0,2.6964983E1,7.5888767E0,1.9379204E1,2.2785196E1,1.2073096E1,1.4002192E1,7.330126E1,4.7917793E1,5.5918926E3,6.218697E2,7.0968504E0,4.9411664E0,2.417856E0,1.1308705E0,2.1071505E1,5.893479E0,4.1867886E0,3.4020884E0,1.2423262E1,6.9559417E0,1.662949E1,6.155708E0,7.474716E0,4.5983796E0,6.1713886E0,7.830803E0,2.7043255E1,4.6258007E1,1.7498068E1,3.0419725E1,5.559217E3,3.26758E1,9.045403E1,5.3141565E2,2.206412E0,4.8904386E0,3.714398E0,1.2267687E0,1.917605E1,1.895455E0,1.7492629E0,4.1442156E0,2.9949923E0,1.1917961E0,1.4691975E0,1.9328909E0],"tree_param":{"num_deleted":"0","num_feature":"7","num_nodes":"61","size_leaf_vector":"1"}},{"base_weights":[-1.2301077E-4,9.608647E-2,-1.4792886E-3,5.4164402E-2,5.786606E-1,-1.8184397E-1,-8.792096E-5,1.4595535E-1,-2.305466E-1,9.722275E-1,-2.0220158E-1,-5.822172E-1,-3.3716276E-2,7.918292E-4,-1.7389405E-1,-2.7540637E-2,2.747977E-1,-3.689395E-1,1.983402E-1,3.3807528E-1,5.6432735E-2,1.5961882E-1,-9.7259593E-1,4.0641883E-1,-1.4372036E-1,1.8864278E-4,2.2883916E-1,-1.412439E-2,-5.333326E-1,2.3095328E-1,-5.0054884E-1,3.428707E-1,1.5426145E-1,1.8078148E-1,-4.6644396E-1,2.5635824E-1,-2.3778568E-1,-4.0570247E-1,7.5417E-2,-4.8853177E-1,9.7607724E-2,1.1604306E-2,-1.0089538E-2,-7.470361E-1,6.0043126E-1,-1.4662297E-1,2.7769607E-1,-4.169716E-1,3.503154E-2,-1.4900847E-1,1.0393793E-1,1.7454314E-1,-2.1971926E-1,-2.6559538E-1,7.471357E-2,-2.2168307E-1,9.07556E-3,-1.5192088E-1,6.656381E-2,-7.008901E-2,-3.9551076E-1,1.4006089E-1,-8.14973E-2,4.162959E-3,-1.5301114E-1,-5.6407284E-2,-1.0548148E-4,6.3249275E-2,-3.2906303E-1,3.481096E-1,-6.958195E-2,-1.1765221E-1,3.5212576E-2,1.3133162E-1,-3.03925E-1],"categories":[],"categories_nodes":[],"categories_segments":[],"categories_sizes":[],"default_left":[0,0,0,0,0,0,0,0,0,0,0,0,0,0,0,0,0,0,0,0,0,0,0,0,0,0,0,0,0,0,0,0,0,0,0,0,0,0,0,0,0,0,0,0,0,0,0,0,0,0,0,0,0,0,0,0,0,0,0,0,0,0,0,0,0,0,0,0,0,0,0,0,0,0,0],"id":12,"left_children":[1,3,5,7,9,11,13,15,17,19,-1,21,23,25,27,29,31,33,-1,-1,-1,35,37,-1,39,41,43,45,47,49,51,-1,53,-1,55,-1,57,-1,-1,59,61,63,65,67,69,71,-1,-1,73,-1,-1,-1,-1,-1,-1,-1,-1,-1,-1,-1,-1,-1,-1,-1,-1,-1,-1,-1,-1,-1,-1,-1,-1,-1,-1],"loss_changes":[8.4215254E-1,1.7836807E0,1.5970837E0,2.2197366E0,4.1397014E0,2.8696427E0,9.659538E-1,1.4352528E0,2.808385E0,4.900031E-1,0E0,3.947578E0,5.788235E0,8.6457163E-1,1.8195248E0,3.554623E0,3.668269E0,2.0460105E0,0E0,0E0,0E0,1.687317E0,4.3935423E0,0E0,2.9466562E0,7.357915E-1,6.4611754E0,3.0061688E0,4.801699E0,1.7582064E0,2.999518E0,0E0,3.5133445E0,0E0,2.3903682E0,0E0,6.3110375E-1,0E0,0E0,2.7612953E0,3.0350044E0,3.528669E0,5.717758E0,1.9128191E0,6.1242485E0,1.4116998E0,0E0,0E0,3.3325517E0,0E0,0E0,0E0,0E0,0E0,0E0,0E0,0E0,0E0,0E0,0E0,0E0,0E0,0E0,0E0,0E0,0E0,0E0,0E0,0E0,0E0,0E0,0E0,0E0,0E0,0E0],"parents":[2147483647,0,0,1,1,2,2,3,3,4,4,5,5,6,6,7,7,8,8,9,9,11,11,12,12,13,13,14,14,15,15,16,16,17,17,21,21,22,22,24,24,25,25,26,26,27,27,28,28,29,29,30,30,32,32,34,34,36,36,39,39,40,40,41,41,42,42,43,43,44,44,45,45,48,48],"right_children":[2,4,6,8,10,12,14,16,18,20,-1,22,24,26,28,30,32,34,-1,-1,-1,36,38,-1,40,42,44,46,48,50,52,-1,54,-1,56,-1,58,-1,-1,60,62,64,66,68,70,72,-1,-1,74,-1,-1,-1,-1,-1,-1,-1,-1,-1,-1,-1,-1,-1,-1,-1,-1,-1,-1,-1,-1,-1,-1,-1,-1,-1,-1],"split_conditions":[-5.8E0,2.39605E3,-3E0,1.54437E3,2.799E3,1.3554859E0,1.9344833E1,7.6666E2,9.123184E0,9.3971585E-7,-2.0220158E-1,9.1678786E-1,1.7664937E0,1.7950792E1,6.0182E2,5.7498E2,8.5551E2,9.369678E-7,1.983402E-1,3.3807528E-1,5.6432735E-2,9.375494E-7,1.96414E3,4.0641883E-1,9.383147E-7,9.382443E-7,4.9663E2,5.4125E2,7.7931E2,3.103E1,9.3675015E-7,3.428707E-1,9.163E2,1.8078148E-1,2.02667E3,2.5635824E-1,8.7923414E-1,-4.0570247E-1,7.5417E-2,9.380146E-7,9.39496E-7,1.03E1,9.3834905E-7,1.798E1,7.6666E2,9.385137E-7,2.7769607E-1,-4.169716E-1,1.87215E3,-1.4900847E-1,1.0393793E-1,1.7454314E-1,-2.1971926E-1,-2.6559538E-1,7.471357E-2,-2.2168307E-1,9.07556E-3,-1.5192088E-1,6.656381E-2,-7.008901E-2,-3.9551076E-1,1.4006089E-1,-8.14973E-2,4.162959E-3,-1.5301114E-1,-5.6407284E-2,-1.0548148E-4,6.3249275E-2,-3.2906303E-1,3.481096E-1,-6.958195E-2,-1.1765221E-1,3.5212576E-2,1.3133162E-1,-3.03925E-1],"split_indices":[3,1,3,1,1,2,2,1,2,4,0,2,2,2,1,1,1,4,0,0,0,4,1,0,4,4,1,1,1,1,4,0,1,0,1,0,2,0,0,4,4,3,4,1,1,4,0,0,1,0,0,0,0,0,0,0,0,0,0,0,0,0,0,0,0,0,0,0,0,0,0,0,0,0,0],"split_type":[0,0,0,0,0,0,0,0,0,0,0,0,0,0,0,0,0,0,0,0,0,0,0,0,0,0,0,0,0,0,0,0,0,0,0,0,0,0,0,0,0,0,0,0,0,0,0,0,0,0,0,0,0,0,0,0,0,0,0,0,0,0,0,0,0,0,0,0,0,0,0,0,0,0,0],"sum_hessian":[6.4518403E3,8.871717E1,6.3631235E3,8.26495E1,6.0676675E0,4.7717754E1,6.315406E3,6.286814E1,1.978136E1,4.787414E0,1.2802533E0,1.2095206E1,3.562255E1,6.2845903E3,3.081511E1,2.7126497E1,3.5741642E1,1.7631166E1,2.1501946E0,3.633436E0,1.1539781E0,4.374144E0,7.7210617E0,1.7844446E0,3.3838104E1,6.26901E3,1.5580736E1,2.2052235E1,8.7628765E0,1.7871597E1,9.254901E0,3.3235493E0,3.2418095E1,1.135605E0,1.6495562E1,1.172907E0,3.2012372E0,5.8127656E0,1.9082963E0,1.3510234E1,2.0327871E1,2.9700908E3,3.298919E3,4.0180826E0,1.15626545E1,2.0066986E1,1.985248E0,2.9187002E0,5.844176E0,1.99619E0,1.5875406E1,1.3664312E0,7.8884697E0,2.0118558E0,3.0406237E1,1.0336812E1,6.1587486E0,1.9563279E0,1.2449093E0,1.1315868E1,2.1943657E0,1.0031823E1,1.0296049E1,2.9581787E3,1.1912165E1,1.7022385E2,3.128695E3,1.1812259E0,2.8368566E0,6.677002E0,4.885652E0,1.0145187E1,9.921799E0,4.642579E0,1.2015971E0],"tree_param":{"num_deleted":"0","num_feature":"7","num_nodes":"75","size_leaf_vector":"1"}},{"base_weights":[-1.3192982E-4,2.6441226E-3,-4.5300864E-2,3.1652424E-4,2.820526E-1,-9.929434E-2,5.2088037E-2,2.6136525E-3,-8.988855E-2,-4.9433935E-1,4.4547102E-1,-1.2375803E-1,3.866381E-1,8.992981E-1,-8.194238E-3,3.2268357E-4,9.109618E-2,-5.8461495E-2,-8.4289765E-1,-1.1191545E0,5.0414217E-1,5.2207273E-1,-3.9421242E-1,-3.725822E-2,-2.485872E-1,7.0367205E-1,-3.5894194E-1,-6.814793E-2,4.3586177E-1,-8.7079555E-1,5.6131225E-2,3.7022831E-3,-1.514071E-1,6.46026E-1,3.10363E-2,-1.1393688E-1,3.8166052E-1,-3.7862656E-1,7.849099E-2,-1.4147565E-1,-4.5694152E-1,2.4256909E-1,-9.428306E-3,3.8409135E-1,9.592892E-1,1.1880024E-1,-3.010757E-1,-6.5001965E-2,5.997528E-1,-4.2414686E-1,-2.1174642E-1,-5.7894755E-2,2.6289678E-1,-2.3030771E-1,1.1905601E-1,2.3166104E-1,-2.429178E-1,5.0689958E-2,-3.7151718E-1,1.3273828E-1,-2.6693636E-1,-3.535334E-5,2.588071E-2,-8.881316E-2,8.245128E-2,3.4336174E-1,-7.778089E-2,3.02516E-2,-1.347923E-1,-2.2150762E-2,-2.6241234E-1,2.6552993E-1,1.1993145E-2,1.4705008E-1,-3.6219594E-1,3.7449837E-2,3.2449856E-1,-4.525605E-2,5.1836025E-2,-1.3661182E-1,2.836099E-1,-2.5662297E-1,-4.7786668E-2,6.2725514E-2,-3.913804E-2,1.0089349E-1,7.3564234E-3,-3.539461E-1,-3.805321E-2],"categories":[],"categories_nodes":[],"categories_segments":[],"categories_sizes":[],"default_left":[0,0,0,0,0,0,0,0,0,0,0,0,0,0,0,0,0,0,0,0,0,0,0,0,0,0,0,0,0,0,0,0,0,0,0,0,0,0,0,0,0,0,0,0,0,0,0,0,0,0,0,0,0,0,0,0,0,0,0,0,0,0,0,0,0,0,0,0,0,0,0,0,0,0,0,0,0,0,0,0,0,0,0,0,0,0,0,0,0],"id":13,"left_children":[1,3,5,7,9,11,13,15,17,19,21,23,25,27,29,31,33,35,37,39,41,43,45,47,49,51,53,55,-1,57,59,61,63,65,67,69,71,-1,-1,-1,-1,-1,-1,73,75,-1,-1,77,79,-1,81,-1,-1,-1,-1,-1,-1,83,-1,85,87,-1,-1,-1,-1,-1,-1,-1,-1,-1,-1,-1,-1,-1,-1,-1,-1,-1,-1,-1,-1,-1,-1,-1,-1,-1,-1,-1,-1],"loss_changes":[8.087604E-1,3.951755E0,1.9689271E0,1.2491635E0,6.589491E0,2.908009E0,6.8435993E0,1.1916211E0,3.4934735E0,6.3057117E0,2.9071321E0,2.4723048E0,3.0357735E0,4.865803E0,7.037758E0,2.9394467E0,4.9247007E0,3.5784729E0,3.0726876E0,8.4385586E-1,7.153512E-1,1.9792986E0,2.362452E0,2.4589589E0,3.7313113E0,1.5003638E0,1.5945051E0,3.2392864E0,0E0,3.0440936E0,2.9596407E0,1.7686447E0,7.7814317E0,6.812881E0,4.569166E0,3.881452E0,2.7919302E0,0E0,0E0,0E0,0E0,0E0,0E0,5.866907E0,7.500806E-1,0E0,0E0,2.7231793E0,2.5501497E0,0E0,2.9766111E0,0E0,0E0,0E0,0E0,0E0,0E0,1.268568E-1,0E0,2.110481E0,2.789085E0,0E0,0E0,0E0,0E0,0E0,0E0,0E0,0E0,0E0,0E0,0E0,0E0,0E0,0E0,0E0,0E0,0E0,0E0,0E0,0E0,0E0,0E0,0E0,0E0,0E0,0E0,0E0,0E0],"parents":[2147483647,0,0,1,1,2,2,3,3,4,4,5,5,6,6,7,7,8,8,9,9,10,10,11,11,12,12,13,13,14,14,15,15,16,16,17,17,18,18,19,19,20,20,21,21,22,22,23,23,24,24,25,25,26,26,27,27,29,29,30,30,31,31,32,32,33,33,34,34,35,35,36,36,43,43,44,44,47,47,48,48,50,50,57,57,59,59,60,60],"right_children":[2,4,6,8,10,12,14,16,18,20,22,24,26,28,30,32,34,36,38,40,42,44,46,48,50,52,54,56,-1,58,60,62,64,66,68,70,72,-1,-1,-1,-1,-1,-1,74,76,-1,-1,78,80,-1,82,-1,-1,-1,-1,-1,-1,84,-1,86,88,-1,-1,-1,-1,-1,-1,-1,-1,-1,-1,-1,-1,-1,-1,-1,-1,-1,-1,-1,-1,-1,-1,-1,-1,-1,-1,-1,-1],"split_conditions":[1.66043E3,1.58935E3,9.4019026E-7,1.1976099E1,9.3792397E-7,1.23298645E1,9.4039365E-7,1.41719E3,1.24479E3,4.228923E0,9.4241426E-7,3.5985193E0,1.5177394E1,2.14628E3,9.4075546E-7,1.29813E3,9.3700646E-7,8.7125E2,1.9344833E1,9.367835E-7,6.32333E0,6.686473E0,4.924696E-1,3.3588688E0,1.70899E3,-3E-1,9.3848115E-7,7.766568E0,4.3586177E-1,4.309109E0,2.39605E3,1.14354E3,9.4033084E-7,3.0406847E0,6.4528165E0,8.131E2,1.00628E3,-3.7862656E-1,7.849099E-2,-1.4147565E-1,-4.5694152E-1,2.4256909E-1,-9.428306E-3,6.0044084E0,9.3898524E-7,1.1880024E-1,-3.010757E-1,2.29676E3,9.373446E-7,-4.2414686E-1,3.906523E0,-5.7894755E-2,2.6289678E-1,-2.3030771E-1,1.1905601E-1,2.3166104E-1,-2.429178E-1,2.14628E3,-3.7151718E-1,9.414729E-7,2.58002E3,-3.535334E-5,2.588071E-2,-8.881316E-2,8.245128E-2,3.4336174E-1,-7.778089E-2,3.02516E-2,-1.347923E-1,-2.2150762E-2,-2.6241234E-1,2.6552993E-1,1.1993145E-2,1.4705008E-1,-3.6219594E-1,3.7449837E-2,3.2449856E-1,-4.525605E-2,5.1836025E-2,-1.3661182E-1,2.836099E-1,-2.5662297E-1,-4.7786668E-2,6.2725514E-2,-3.913804E-2,1.0089349E-1,7.3564234E-3,-3.539461E-1,-3.805321E-2],"split_indices":[1,1,4,2,4,2,4,1,1,2,4,2,2,1,4,1,4,1,2,4,2,2,2,2,1,3,4,2,0,2,1,1,4,2,2,1,1,0,0,0,0,0,0,2,4,0,0,1,4,0,2,0,0,0,0,0,0,1,0,4,1,0,0,0,0,0,0,0,0,0,0,0,0,0,0,0,0,0,0,0,0,0,0,0,0,0,0,0,0],"split_type":[0,0,0,0,0,0,0,0,0,0,0,0,0,0,0,0,0,0,0,0,0,0,0,0,0,0,0,0,0,0,0,0,0,0,0,0,0,0,0,0,0,0,0,0,0,0,0,0,0,0,0,0,0,0,0,0,0,0,0,0,0,0,0,0,0,0,0,0,0,0,0,0,0,0,0,0,0,0,0,0,0,0,0,0,0,0,0,0,0],"sum_hessian":[6.4479355E3,6.075482E3,3.7245358E2,6.0262817E3,4.9200504E1,2.3959818E2,1.3285542E2,5.877576E3,1.4870511E2,8.20309E0,4.0997417E1,2.2882364E2,1.0774536E1,7.9006853E0,1.24954735E2,5.730215E3,1.4736172E2,1.4378195E2,4.923145E0,4.97134E0,3.231749E0,3.791665E1,3.0807672E0,1.3593001E2,9.289362E1,7.599361E0,3.1751754E0,3.1945949E0,4.7060905E0,7.8013725E0,1.17153366E2,5.6063164E3,1.2389839E2,1.3438536E1,1.3392319E2,1.2834569E2,1.5436268E1,3.4653418E0,1.457803E0,2.7425256E0,2.2288148E0,1.7355341E0,1.496215E0,3.0248878E1,7.667769E0,1.4938052E0,1.586962E0,1.3111742E2,4.812599E0,1.7014655E0,9.1192154E1,1.2079825E0,6.3913784E0,2.0504868E0,1.1246886E0,1.478205E0,1.7163898E0,2.4704823E0,5.33089E0,9.517437E1,2.1978989E1,5.359353E3,2.4696338E2,9.273595E1,3.1162445E1,8.49589E0,4.9426455E0,1.17620895E2,1.63023E1,1.2296133E2,5.3843627E0,5.597886E0,9.838382E0,2.9007383E1,1.2414961E0,1.2390206E0,6.4287486E0,9.660472E1,3.4512688E1,1.1090862E0,3.7035134E0,5.7184944E0,8.547366E1,1.2357506E0,1.2347318E0,3.230178E1,6.2872593E1,1.9367578E0,2.004223E1],"tree_param":{"num_deleted":"0","num_feature":"7","num_nodes":"89","size_leaf_vector":"1"}},{"base_weights":[-2.7539325E-4,6.882206E-4,-1.22590214E-1,-1.3971582E-4,2.1679029E-1,2.7032518E-1,-2.2538365E-1,1.8202479E-3,-5.3806555E-2,3.3584785E-1,-4.9369875E-2,4.2636957E-2,2.7969748E-1,-7.9102576E-1,-9.146654E-2,8.2488207E-4,2.5873595E-1,1.11917265E-1,-1.1918761E-1,-3.0093616E-1,7.8182876E-1,1.6126914E-1,-1.8883511E-1,-3.3925545E-1,-4.7578868E-1,-6.372468E-1,1.0113701E-1,1.8873953E-3,-2.4334896E-1,-1.5015315E-1,3.4103972E-1,6.222964E-2,5.2706337E-1,-1.4485061E-1,4.0509382E-1,1.0267083E-1,-9.265258E-1,3.2508048E-1,3.670175E-2,2.349268E-2,-1.0638829E-1,5.7613686E-2,-3.1217057E-1,1.0584456E-1,-8.184925E-1,2.823634E-1,-6.2223595E-1,-3.2011396E-4,2.3760809E-2,-1.5572082E-1,5.9520523E-3,2.442099E-1,8.58776E-3,7.274612E-2,-5.7173613E-2,3.0296909E-2,2.1566018E-1,-3.6250766E-2,-2.6851833E-1,2.4727064E-1,-8.292624E-2,1.717836E-1,-2.2708629E-1,1.0922227E-1,-3.9235434E-1,-1.3501427E-1,-3.462314E-1,3.391707E-2,1.9315745E-1,-3.3962005E-1,4.06636E-2],"categories":[],"categories_nodes":[],"categories_segments":[],"categories_sizes":[],"default_left":[0,0,0,0,0,0,0,0,0,0,0,0,0,0,0,0,0,0,0,0,0,0,0,0,0,0,0,0,0,0,0,0,0,0,0,0,0,0,0,0,0,0,0,0,0,0,0,0,0,0,0,0,0,0,0,0,0,0,0,0,0,0,0,0,0,0,0,0,0,0,0],"id":14,"left_children":[1,3,5,7,9,11,13,15,17,-1,19,21,-1,23,25,27,29,31,33,35,37,-1,39,-1,41,43,45,47,49,-1,51,53,55,57,59,61,63,-1,-1,-1,-1,-1,-1,-1,65,67,69,-1,-1,-1,-1,-1,-1,-1,-1,-1,-1,-1,-1,-1,-1,-1,-1,-1,-1,-1,-1,-1,-1,-1,-1],"loss_changes":[7.595749E-1,1.1441083E0,2.0954785E0,6.702313E-1,5.9190297E0,1.6032758E0,2.993462E0,1.5718527E0,2.4459417E0,0E0,4.3767366E0,1.1507562E0,0E0,2.779379E-1,3.6233833E0,1.5894549E0,1.6530547E0,1.2880054E0,2.2313125E0,4.1164126E0,8.3854914E-1,0E0,3.3693177E-1,0E0,2.3413935E0,1.8980663E0,3.5694652E0,1.3932896E0,1.9364989E0,0E0,3.2271488E0,2.7039013E0,4.7580886E-1,2.6785696E0,2.455554E0,4.7078686E0,3.5989418E0,0E0,0E0,0E0,0E0,0E0,0E0,0E0,4.5520306E-1,1.2363173E0,2.2777433E0,0E0,0E0,0E0,0E0,0E0,0E0,0E0,0E0,0E0,0E0,0E0,0E0,0E0,0E0,0E0,0E0,0E0,0E0,0E0,0E0,0E0,0E0,0E0,0E0],"parents":[2147483647,0,0,1,1,2,2,3,3,4,4,5,5,6,6,7,7,8,8,10,10,11,11,13,13,14,14,15,15,16,16,17,17,18,18,19,19,20,20,22,22,24,24,25,25,26,26,27,27,28,28,30,30,31,31,32,32,33,33,34,34,35,35,36,36,44,44,45,45,46,46],"right_children":[2,4,6,8,10,12,14,16,18,-1,20,22,-1,24,26,28,30,32,34,36,38,-1,40,-1,42,44,46,48,50,-1,52,54,56,58,60,62,64,-1,-1,-1,-1,-1,-1,-1,66,68,70,-1,-1,-1,-1,-1,-1,-1,-1,-1,-1,-1,-1,-1,-1,-1,-1,-1,-1,-1,-1,-1,-1,-1,-1],"split_conditions":[2.58002E3,2.39605E3,3.077935E-2,1.78586E3,-3E0,9.4108833E-7,4.8936047E-2,1.74905E3,2.1343063E-1,3.3584785E-1,7.258382E0,9.399808E-7,2.7969748E-1,9.3942094E-7,0E0,1.70899E3,9.369678E-7,2.29676E3,1.2939149E1,9.3919243E-7,8.495712E0,1.6126914E-1,2.799E3,-3.3925545E-1,9.4108833E-7,9.3759684E-7,7.766568E0,1.41719E3,9.385569E-7,-1.5015315E-1,9.378668E-7,2.02667E3,1.492995E-11,1.1288302E1,1.5177394E1,3.0114648E0,-3E-1,3.2508048E-1,3.670175E-2,2.349268E-2,-1.0638829E-1,5.7613686E-2,-3.1217057E-1,1.0584456E-1,9.396549E-7,2.858464E0,9.3967964E-7,-3.2011396E-4,2.3760809E-2,-1.5572082E-1,5.9520523E-3,2.442099E-1,8.58776E-3,7.274612E-2,-5.7173613E-2,3.0296909E-2,2.1566018E-1,-3.6250766E-2,-2.6851833E-1,2.4727064E-1,-8.292624E-2,1.717836E-1,-2.2708629E-1,1.0922227E-1,-3.9235434E-1,-1.3501427E-1,-3.462314E-1,3.391707E-2,1.9315745E-1,-3.3962005E-1,4.06636E-2],"split_indices":[1,1,2,1,3,4,2,1,2,0,2,4,0,4,3,1,4,1,2,4,2,0,1,0,4,4,2,1,4,0,4,1,2,2,2,2,3,0,0,0,0,0,0,0,4,2,4,0,0,0,0,0,0,0,0,0,0,0,0,0,0,0,0,0,0,0,0,0,0,0,0],"split_type":[0,0,0,0,0,0,0,0,0,0,0,0,0,0,0,0,0,0,0,0,0,0,0,0,0,0,0,0,0,0,0,0,0,0,0,0,0,0,0,0,0,0,0,0,0,0,0,0,0,0,0,0,0,0,0,0,0,0,0,0,0,0,0,0,0,0,0,0,0,0,0],"sum_hessian":[6.442773E3,6.393399E3,4.937375E1,6.3699937E3,2.3405546E1,9.900501E0,3.9473248E1,6.1464844E3,2.2350932E2,4.599592E0,1.8805954E1,8.158777E0,1.7417239E0,6.617074E0,3.2856174E1,6.123762E3,2.2722015E1,6.3030857E1,1.6047847E2,1.4926367E1,3.8795881E0,2.1784687E0,5.980308E0,1.939253E0,4.677821E0,7.9681764E0,2.4887997E1,6.0982183E3,2.5543896E1,1.7252688E0,2.0996746E1,5.7320263E1,5.710596E0,1.5367972E2,6.798739E0,9.580967E0,5.3454E0,2.220451E0,1.659137E0,2.4922218E0,3.4880862E0,2.445756E0,2.2320652E0,1.086502E0,6.881675E0,2.0389484E1,4.4985137E0,5.874715E3,2.235037E2,1.2000151E1,1.3543745E1,7.713268E0,1.3283479E1,3.3485355E1,2.3834906E1,2.2465744E0,3.4640214E0,1.5003798E2,3.6417453E0,4.080038E0,2.7187011E0,6.410401E0,3.170566E0,1.2294631E0,4.1159368E0,4.3962812E0,2.4853933E0,1.4780001E1,5.6094832E0,2.393953E0,2.1045606E0],"tree_param":{"num_deleted":"0","num_feature":"7","num_nodes":"71","size_leaf_vector":"1"}},{"base_weights":[-2.5510913E-4,2.8369746E-3,-3.5195664E-2,-1.0606635E-3,1.0951165E-1,-1.5265775E-1,3.30202E-2,2.440537E-3,-1.6637197E-1,4.3966386E-1,8.182997E-2,-1.0243626E-1,-8.246639E-1,5.1643425E-1,9.915385E-3,3.5468122E-4,4.5363417E-1,-8.8985133E-1,-1.16801254E-1,1.0550776E0,-1.9342536E-1,-2.7959374E-1,9.7100385E-2,-1.5431811E-1,2.5075328E-1,-9.5561177E-1,-3.7676173E-1,9.9436486E-1,2.4434748E-1,2.0176623E-2,-3.1271982E-1,-2.3123089E-3,9.281369E-2,6.1073416E-1,-1.6505793E-1,-2.5803274E-1,-4.14823E-1,-7.1731344E-2,-9.538148E-1,6.87137E-2,3.505866E-1,1.6252144E-1,-4.5628628E-1,3.5967626E-2,2.4364592E-1,-2.491893E-2,-3.7845945E-1,-4.620579E-1,4.0864754E-1,-1.2539881E0,-4.056886E-1,9.47135E-2,-7.1785116E-1,6.609626E-2,3.978677E-1,6.9591475E-1,-3.8598558E-1,9.72027E-2,-9.866428E-2,5.293045E-4,-2.5960242E-2,-8.531215E-3,1.8948494E-1,6.564204E-2,3.0294868E-1,4.783699E-2,-1.2065957E-1,-2.4606669E-1,1.9999851E-1,-5.3516056E-2,6.1302505E-2,-4.0056425E-1,-9.933886E-2,-9.57135E-3,-2.8232044E-1,4.9167354E-2,-4.9972367E-2,8.8990584E-2,-2.6972747E-1,-6.2685855E-2,5.070178E-2,-1.4852919E-1,1.9389689E-2,9.347896E-3,-2.5048274E-1,1.484375E-1,-9.869031E-2,-4.5249963E-1,-5.6334645E-2,1.9686814E-1,-3.5578158E-1,-4.7959592E-2,-2.8761718E-1,1.1552561E-1,3.4388024E-1,-3.3194855E-1,2.5329566E-1,6.5531774E-4,1.638427E-1,-3.0849075E-1,-1.2651914E-2],"categories":[],"categories_nodes":[],"categories_segments":[],"categories_sizes":[],"default_left":[0,0,0,0,0,0,0,0,0,0,0,0,0,0,0,0,0,0,0,0,0,0,0,0,0,0,0,0,0,0,0,0,0,0,0,0,0,0,0,0,0,0,0,0,0,0,0,0,0,0,0,0,0,0,0,0,0,0,0,0,0,0,0,0,0,0,0,0,0,0,0,0,0,0,0,0,0,0,0,0,0,0,0,0,0,0,0,0,0,0,0,0,0,0,0,0,0,0,0,0,0],"id":15,"left_children":[1,3,5,7,9,11,13,15,17,19,21,23,25,27,29,31,33,35,37,39,41,-1,43,45,47,49,51,53,55,57,-1,59,61,63,65,67,-1,69,71,-1,-1,-1,73,75,77,79,81,83,85,87,89,-1,91,-1,-1,93,95,97,99,-1,-1,-1,-1,-1,-1,-1,-1,-1,-1,-1,-1,-1,-1,-1,-1,-1,-1,-1,-1,-1,-1,-1,-1,-1,-1,-1,-1,-1,-1,-1,-1,-1,-1,-1,-1,-1,-1,-1,-1,-1,-1],"loss_changes":[6.9587827E-1,2.46045E0,4.200985E0,3.3051746E0,1.8704171E0,6.4143624E0,3.704096E0,5.2629585E0,4.143611E0,6.4020658E0,3.089034E0,3.3428035E0,4.1700554E-1,1.7243633E0,3.4544318E0,1.3731229E0,2.602025E0,1.9612498E0,4.1564326E0,5.034447E-1,1.9258208E0,0E0,1.7088008E0,4.5684795E0,2.8309913E0,1.0665541E0,1.3244569E0,1.033937E0,3.3900318E0,2.9010644E0,0E0,1.8585049E0,1.0217396E1,3.0223727E0,5.2574104E-1,2.8817084E0,0E0,3.1974118E0,8.9755297E-1,0E0,0E0,0E0,1.3980604E0,3.562906E0,3.6735237E0,3.6448314E0,3.0140085E0,8.9527214E-1,1.4176676E0,1.2748194E0,4.800946E0,0E0,3.0632877E-1,0E0,0E0,5.028999E-1,5.561818E0,8.195816E0,6.5062923E0,0E0,0E0,0E0,0E0,0E0,0E0,0E0,0E0,0E0,0E0,0E0,0E0,0E0,0E0,0E0,0E0,0E0,0E0,0E0,0E0,0E0,0E0,0E0,0E0,0E0,0E0,0E0,0E0,0E0,0E0,0E0,0E0,0E0,0E0,0E0,0E0,0E0,0E0,0E0,0E0,0E0,0E0],"parents":[2147483647,0,0,1,1,2,2,3,3,4,4,5,5,6,6,7,7,8,8,9,9,10,10,11,11,12,12,13,13,14,14,15,15,16,16,17,17,18,18,19,19,20,20,22,22,23,23,24,24,25,25,26,26,27,27,28,28,29,29,31,31,32,32,33,33,34,34,35,35,37,37,38,38,42,42,43,43,44,44,45,45,46,46,47,47,48,48,49,49,50,50,52,52,55,55,56,56,57,57,58,58],"right_children":[2,4,6,8,10,12,14,16,18,20,22,24,26,28,30,32,34,36,38,40,42,-1,44,46,48,50,52,54,56,58,-1,60,62,64,66,68,-1,70,72,-1,-1,-1,74,76,78,80,82,84,86,88,90,-1,92,-1,-1,94,96,98,100,-1,-1,-1,-1,-1,-1,-1,-1,-1,-1,-1,-1,-1,-1,-1,-1,-1,-1,-1,-1,-1,-1,-1,-1,-1,-1,-1,-1,-1,-1,-1,-1,-1,-1,-1,-1,-1,-1,-1,-1,-1,-1],"split_conditions":[9.4158366E-7,9.4123806E-7,5.4809E2,9.411229E-7,1.5758E2,5.0477E2,5.7498E2,9.4108833E-7,2.4852E2,9.413532E-7,1.7708E2,4.7658E2,9.4219314E-7,9.419553E-7,2.29676E3,9.408838E-7,1.3953305E0,4.7046804E0,1.49374E3,1.194E1,7.63E0,-2.7959374E-1,8.7125E2,2.5923E2,9.4178495E-7,2.417894E0,9.4249776E-7,9.4178495E-7,1.046498E0,2.798095E0,-3.1271982E-1,9.406024E-7,4.5737925E0,2.7685E2,2.9199E2,2.5211735E0,-4.14823E-1,2.3392305E0,2.3016927E0,6.87137E-2,3.505866E-1,1.6252144E-1,8.7923414E-1,5.6312E2,9.4153137E-7,7.614E1,4.750579E0,1.492995E-11,4.66133E0,5.4496E2,5.3651E2,9.47135E-2,2.1340349E0,6.609626E-2,3.978677E-1,1.5078741E-1,4.0013156E0,1.1009445E0,2.9753373E0,5.293045E-4,-2.5960242E-2,-8.531215E-3,1.8948494E-1,6.564204E-2,3.0294868E-1,4.783699E-2,-1.2065957E-1,-2.4606669E-1,1.9999851E-1,-5.3516056E-2,6.1302505E-2,-4.0056425E-1,-9.933886E-2,-9.57135E-3,-2.8232044E-1,4.9167354E-2,-4.9972367E-2,8.8990584E-2,-2.6972747E-1,-6.2685855E-2,5.070178E-2,-1.4852919E-1,1.9389689E-2,9.347896E-3,-2.5048274E-1,1.484375E-1,-9.869031E-2,-4.5249963E-1,-5.6334645E-2,1.9686814E-1,-3.5578158E-1,-4.7959592E-2,-2.8761718E-1,1.1552561E-1,3.4388024E-1,-3.3194855E-1,2.5329566E-1,6.5531774E-4,1.638427E-1,-3.0849075E-1,-1.2651914E-2],"split_indices":[4,4,1,4,1,1,1,4,1,4,1,1,4,4,1,4,2,2,1,1,1,0,1,1,4,2,4,4,2,2,0,4,2,1,1,2,0,2,2,0,0,0,2,1,4,1,2,2,2,1,1,0,2,0,0,2,2,2,2,0,0,0,0,0,0,0,0,0,0,0,0,0,0,0,0,0,0,0,0,0,0,0,0,0,0,0,0,0,0,0,0,0,0,0,0,0,0,0,0,0,0],"split_type":[0,0,0,0,0,0,0,0,0,0,0,0,0,0,0,0,0,0,0,0,0,0,0,0,0,0,0,0,0,0,0,0,0,0,0,0,0,0,0,0,0,0,0,0,0,0,0,0,0,0,0,0,0,0,0,0,0,0,0,0,0,0,0,0,0,0,0,0,0,0,0,0,0,0,0,0,0,0,0,0,0,0,0,0,0,0,0,0,0,0,0,0,0,0,0,0,0,0,0,0,0],"sum_hessian":[6.43906E3,5.9164033E3,5.226566E2,5.708807E3,2.0759613E2,1.9156302E2,3.3109357E2,5.5913706E3,1.17436844E2,1.490811E1,1.9268803E2,1.7931462E2,1.2248406E1,1.4128844E1,3.1696475E2,5.5666367E3,2.4733624E1,6.4435005E0,1.1099334E2,7.2215896E0,7.6865196E0,1.9684743E0,1.9071956E2,1.5683882E2,2.2475796E1,8.600463E0,3.6479442E0,4.1625614E0,9.966283E0,3.1487518E2,2.0895567E0,5.411516E3,1.5512077E2,1.9735256E1,4.9983673E0,3.491453E0,2.9520473E0,1.0635238E2,4.640961E0,1.2373252E0,5.9842644E0,1.7450562E0,5.9414635E0,1.3545764E2,5.526191E1,1.001388E2,5.670002E1,3.726445E0,1.8749352E1,4.74541E0,3.855053E0,1.2284237E0,2.4195204E0,1.7484078E0,2.4141536E0,5.745904E0,4.2203784E0,1.9115875E2,1.2371642E2,5.1626055E3,2.489107E2,1.2739849E2,2.7722277E1,1.0738181E1,8.997075E0,2.2487106E0,2.749657E0,2.2416E0,1.2498529E0,7.6970245E1,2.9382135E1,2.1684718E0,2.4724896E0,3.7364008E0,2.2050629E0,8.313884E1,5.23188E1,5.352055E1,1.7413597E0,5.1339924E1,4.8798878E1,4.4791817E1,1.19082E1,1.9989084E0,1.7275367E0,1.7083426E1,1.665926E0,3.4966178E0,1.248792E0,1.7001338E0,2.1549191E0,1.2311747E0,1.1883458E0,4.4971123E0,1.248792E0,2.7250981E0,1.4952803E0,1.5859657E2,3.2562187E1,6.1017165E0,1.1761471E2],"tree_param":{"num_deleted":"0","num_feature":"7","num_nodes":"101","size_leaf_vector":"1"}},{"base_weights":[-4.4607566E-4,4.4548538E-4,-1.1534888E-1,-2.3573815E-4,1.8760984E-1,2.1632409E-1,-2.0198128E-1,-1.077448E-3,1.0115893E-1,2.7362177E-1,-2.2819474E-2,4.4795115E-2,2.1367635E-1,-6.8431145E-1,-9.16298E-2,1.6181472E-3,-5.1597677E-2,4.8288196E-1,-8.688559E-3,-3.1739333E-1,4.515262E-1,1.3160934E-1,-1.3765389E-1,-2.9011178E-1,-4.1562593E-1,2.4724506E-1,-2.9226184E-1,-3.4368567E-3,3.5156477E-2,-3.3251848E-3,-3.5917774E-1,6.845255E-1,-1.0969175E-1,-6.008893E-1,9.49939E-2,2.1874076E-1,-9.855587E-1,4.246236E-3,2.9108378E-1,2.027721E-2,-8.033323E-2,4.6344675E-2,-2.796244E-1,1.00798436E-1,2.1091469E-1,-2.9885065E-2,-6.21617E-1,-8.14888E-5,-1.2056143E-1,-1.0069758E-2,4.24717E-2,-6.3981764E-2,1.660949E-2,-7.9499185E-2,-2.5725564E-1,2.4273194E-1,2.635003E-2,-1.570848E-1,1.0172035E-1,-1.0853413E-3,-3.0009207E-1,4.6499953E-2,-1.1512643E-1,3.4259653E-1,-1.5931168E-1,-1.1278692E-1,-3.346441E-1,-1.17035486E-1,1.12250954E-1,9.389476E-2,-2.7234334E-1,-1.1045709E-1,1.5333836E-1,-3.6823678E-1,-7.861526E-2],"categories":[],"categories_nodes":[],"categories_segments":[],"categories_sizes":[],"default_left":[0,0,0,0,0,0,0,0,0,0,0,0,0,0,0,0,0,0,0,0,0,0,0,0,0,0,0,0,0,0,0,0,0,0,0,0,0,0,0,0,0,0,0,0,0,0,0,0,0,0,0,0,0,0,0,0,0,0,0,0,0,0,0,0,0,0,0,0,0,0,0,0,0,0,0],"id":16,"left_children":[1,3,5,7,9,11,13,15,17,-1,19,21,-1,23,25,27,29,31,33,35,37,-1,39,-1,41,43,45,47,49,51,53,55,57,59,61,63,65,67,-1,-1,-1,-1,-1,69,-1,71,73,-1,-1,-1,-1,-1,-1,-1,-1,-1,-1,-1,-1,-1,-1,-1,-1,-1,-1,-1,-1,-1,-1,-1,-1,-1,-1,-1,-1],"loss_changes":[6.59369E-1,8.1444216E-1,1.467663E0,5.43349E-1,3.552306E0,8.822521E-1,2.056282E0,8.599122E-1,2.20204E0,0E0,2.7879329E0,7.109165E-1,0E0,1.4941525E-1,2.3535244E0,1.0164856E0,4.747837E0,1.4767528E0,2.6165633E0,4.6085353E0,1.7740504E0,0E0,2.0364854E-1,0E0,1.7560501E0,7.9820126E-1,1.8422698E0,6.571227E0,5.747891E0,3.430764E0,1.8087268E0,5.8981276E-1,8.908582E-1,1.510597E0,1.1033776E0,5.8827186E0,2.7394295E-2,8.9285654E-1,0E0,0E0,0E0,0E0,0E0,2.6427462E0,0E0,2.57416E0,1.7473123E0,0E0,0E0,0E0,0E0,0E0,0E0,0E0,0E0,0E0,0E0,0E0,0E0,0E0,0E0,0E0,0E0,0E0,0E0,0E0,0E0,0E0,0E0,0E0,0E0,0E0,0E0,0E0,0E0],"parents":[2147483647,0,0,1,1,2,2,3,3,4,4,5,5,6,6,7,7,8,8,10,10,11,11,13,13,14,14,15,15,16,16,17,17,18,18,19,19,20,20,22,22,24,24,25,25,26,26,27,27,28,28,29,29,30,30,31,31,32,32,33,33,34,34,35,35,36,36,37,37,43,43,45,45,46,46],"right_children":[2,4,6,8,10,12,14,16,18,-1,20,22,-1,24,26,28,30,32,34,36,38,-1,40,-1,42,44,46,48,50,52,54,56,58,60,62,64,66,68,-1,-1,-1,-1,-1,70,-1,72,74,-1,-1,-1,-1,-1,-1,-1,-1,-1,-1,-1,-1,-1,-1,-1,-1,-1,-1,-1,-1,-1,-1,-1,-1,-1,-1,-1,-1],"split_conditions":[2.58002E3,2.39605E3,3.077935E-2,9.426337E-7,-3E0,9.4108833E-7,4.8936047E-2,9.421177E-7,9.219E1,2.7362177E-1,4.228923E0,9.399808E-7,2.1367635E-1,9.3942094E-7,1.1009445E0,9.4075546E-7,4.5021167E0,5E-1,1.848E2,9.385137E-7,9.3941037E-7,1.3160934E-1,2.799E3,-2.9011178E-1,9.4108833E-7,7.6932985E-1,9.396549E-7,9.407342E-7,7.4513E2,3.4481E2,9.123184E0,8.495712E0,1.6E0,1.3095E2,1.46944E3,1.4310836E0,9.3898524E-7,7.958066E0,2.9108378E-1,2.027721E-2,-8.033323E-2,4.6344675E-2,-2.796244E-1,3.1304953E-1,2.1091469E-1,9.3937683E-7,9.4015047E-7,-8.14888E-5,-1.2056143E-1,-1.0069758E-2,4.24717E-2,-6.3981764E-2,1.660949E-2,-7.9499185E-2,-2.5725564E-1,2.4273194E-1,2.635003E-2,-1.570848E-1,1.0172035E-1,-1.0853413E-3,-3.0009207E-1,4.6499953E-2,-1.1512643E-1,3.4259653E-1,-1.5931168E-1,-1.1278692E-1,-3.346441E-1,-1.17035486E-1,1.12250954E-1,9.389476E-2,-2.7234334E-1,-1.1045709E-1,1.5333836E-1,-3.6823678E-1,-7.861526E-2],"split_indices":[1,1,2,4,3,4,2,4,1,0,2,4,0,4,2,4,2,0,1,4,4,0,1,0,4,2,4,4,1,1,2,2,0,1,1,2,4,2,0,0,0,0,0,2,0,4,4,0,0,0,0,0,0,0,0,0,0,0,0,0,0,0,0,0,0,0,0,0,0,0,0,0,0,0,0],"split_type":[0,0,0,0,0,0,0,0,0,0,0,0,0,0,0,0,0,0,0,0,0,0,0,0,0,0,0,0,0,0,0,0,0,0,0,0,0,0,0,0,0,0,0,0,0,0,0,0,0,0,0,0,0,0,0,0,0,0,0,0,0,0,0,0,0,0,0,0,0,0,0,0,0,0,0],"sum_hessian":[6.4349546E3,6.386397E3,4.855761E1,6.364232E3,2.2165205E1,9.746397E0,3.881121E1,6.3128164E3,5.141535E1,4.238528E0,1.7926676E1,8.051816E0,1.6945813E0,6.2578526E0,3.255336E1,5.993966E3,3.188506E2,1.0730532E1,4.068482E1,1.1263069E1,6.663607E0,2.1042657E0,5.9475503E0,1.7827655E0,4.475087E0,1.2019556E1,2.0533804E1,5.2096484E3,7.843173E2,2.764712E2,4.2379368E1,7.8903837E0,2.8401475E0,5.347298E0,3.533752E1,6.622122E0,4.6409473E0,4.1196995E0,2.5439074E0,2.4941225E0,3.4534278E0,2.4601932E0,2.014894E0,1.0021017E1,1.9985387E0,1.2036117E1,8.497686E0,5.1695815E3,4.006729E1,4.7697562E2,3.073417E2,5.982618E1,2.1664502E2,3.6931515E1,5.4478545E0,6.233028E0,1.6573557E0,1.3906451E0,1.4495025E0,2.5472736E0,2.8000243E0,3.2002586E1,3.3349364E0,2.733323E0,3.8887987E0,1.4993932E0,3.1415544E0,1.9675558E0,2.152144E0,8.849096E0,1.1719207E0,7.6019325E0,4.4341846E0,2.2659822E0,6.231704E0],"tree_param":{"num_deleted":"0","num_feature":"7","num_nodes":"75","size_leaf_vector":"1"}},{"base_weights":[-4.827459E-4,5.949602E-3,-1.8835392E-2,1.1103819E-3,3.0446383E-1,-5.0146256E-2,5.2406613E-2,1.16339605E-2,-4.3792445E-2,2.541255E-1,8.6676484E-1,-3.283469E-2,-1.5142575E-1,-6.768327E-1,6.555871E-2,2.2732705E-4,7.4657604E-2,-1.7447308E-1,-1.5101912E-2,3.1291193E-1,-8.0827963E-1,-2.3283482E-2,3.8320735E-1,-3.862041E-2,5.3730273E-1,-4.1073972E-1,4.1076247E-2,4.256729E-2,-8.239321E-1,1.5896231E-2,1.9650988E-1,1.1660154E-2,-9.951079E-2,2.635118E-1,3.9770838E-2,-6.5707974E-2,-4.9176317E-1,3.130758E-1,-2.7708465E-2,5.550101E-1,1.723104E-1,-3.5217243E-1,-6.559429E-2,-5.8747128E-2,3.8887847E-2,2.4764211E-1,-2.0999326E-1,-3.4918883E-1,-3.5078776E-1,5.3577954E-1,-4.8410352E-2,-1.0323784E0,-7.850866E-2,5.1947366E-2,-2.3912872E-1,3.8207608E-1,1.2981874E-1,2.3943158E-3,9.424682E-2,-1.6314E-1,-1.243432E-2,2.5898345E-2,1.2919521E-1,7.691381E-3,1.5920654E-1,-1.4734691E-1,2.3324296E-2,-1.8687777E-1,8.309736E-2,-4.7522616E-2,2.0478141E-1,-2.6006738E-3,-6.52234E-2,2.4914779E-1,-8.5191205E-3,-7.460426E-2,1.3968778E-1,-4.1414113E-3,-7.513824E-2,1.6153193E-1,-8.915617E-3,-1.3310453E-1,-2.2414109E-2,-4.946804E-2,2.5391775E-1,7.064375E-2,-9.383336E-2,-1.4304578E-1,-3.8303012E-1,1.640686E-3,9.4153084E-2,1.0494066E-1,-1.0104402E-1,-2.9118446E-1,5.7891384E-2],"categories":[],"categories_nodes":[],"categories_segments":[],"categories_sizes":[],"default_left":[0,0,0,0,0,0,0,0,0,0,0,0,0,0,0,0,0,0,0,0,0,0,0,0,0,0,0,0,0,0,0,0,0,0,0,0,0,0,0,0,0,0,0,0,0,0,0,0,0,0,0,0,0,0,0,0,0,0,0,0,0,0,0,0,0,0,0,0,0,0,0,0,0,0,0,0,0,0,0,0,0,0,0,0,0,0,0,0,0,0,0,0,0,0,0],"id":17,"left_children":[1,3,5,7,9,11,13,15,17,19,21,23,25,27,29,31,33,35,37,39,41,-1,-1,43,45,47,49,-1,51,53,55,57,59,61,63,65,67,69,71,73,75,-1,-1,77,79,-1,-1,81,-1,83,85,87,-1,89,91,-1,93,-1,-1,-1,-1,-1,-1,-1,-1,-1,-1,-1,-1,-1,-1,-1,-1,-1,-1,-1,-1,-1,-1,-1,-1,-1,-1,-1,-1,-1,-1,-1,-1,-1,-1,-1,-1,-1,-1],"loss_changes":[7.592857E-1,6.879727E0,3.7260928E0,2.2156348E0,1.9301624E0,2.0290403E0,4.93703E0,2.7306547E0,3.3351643E0,4.6962867E0,2.3588119E0,3.2931144E0,8.456642E0,1.2159476E0,3.261583E0,3.669864E0,3.8248384E0,5.4951825E0,3.0332758E0,2.2236643E0,6.0769415E-1,0E0,0E0,1.5357466E0,4.1550536E0,2.959221E0,4.361909E0,0E0,6.5365314E-1,3.3687406E0,9.743487E0,3.210884E0,8.515606E0,2.6455708E0,3.4036298E0,7.3887334E0,4.2799053E0,4.8341875E0,2.5442958E0,3.9744296E0,5.6173825E0,0E0,0E0,6.72361E0,6.9815235E0,0E0,0E0,1.734086E0,0E0,3.422896E0,6.367376E0,1.2589169E-1,0E0,3.901587E0,2.7292306E0,0E0,9.292248E0,0E0,0E0,0E0,0E0,0E0,0E0,0E0,0E0,0E0,0E0,0E0,0E0,0E0,0E0,0E0,0E0,0E0,0E0,0E0,0E0,0E0,0E0,0E0,0E0,0E0,0E0,0E0,0E0,0E0,0E0,0E0,0E0,0E0,0E0,0E0,0E0,0E0,0E0],"parents":[2147483647,0,0,1,1,2,2,3,3,4,4,5,5,6,6,7,7,8,8,9,9,10,10,11,11,12,12,13,13,14,14,15,15,16,16,17,17,18,18,19,19,20,20,23,23,24,24,25,25,26,26,28,28,29,29,30,30,31,31,32,32,33,33,34,34,35,35,36,36,37,37,38,38,39,39,40,40,43,43,44,44,47,47,49,49,50,50,51,51,53,53,54,54,56,56],"right_children":[2,4,6,8,10,12,14,16,18,20,22,24,26,28,30,32,34,36,38,40,42,-1,-1,44,46,48,50,-1,52,54,56,58,60,62,64,66,68,70,72,74,76,-1,-1,78,80,-1,-1,82,-1,84,86,88,-1,90,92,-1,94,-1,-1,-1,-1,-1,-1,-1,-1,-1,-1,-1,-1,-1,-1,-1,-1,-1,-1,-1,-1,-1,-1,-1,-1,-1,-1,-1,-1,-1,-1,-1,-1,-1,-1,-1,-1,-1,-1],"split_conditions":[8.131E2,7.8799E2,9.4019026E-7,9.402743E-7,7.8523397E0,9.395675E-7,8.2028E2,6.2997E2,9.4075546E-7,6.6063666E0,9.374052E-7,9.3951365E-7,3.077935E-2,9.402221E-7,4.159564E0,5.5292E2,6.4814E2,5.9401E2,9.408068E-7,7.9463E2,6.8279533E0,-2.3283482E-2,3.8320735E-1,5.514791E0,6.4528165E0,9.399808E-7,9.2639E2,4.256729E-2,9.4128325E-7,2.9150066E0,4.309109E0,5.4496E2,5.596E2,9.380947E-7,9.4015047E-7,1.848E2,5.0635333E0,1.9006578E0,6.686473E0,9.393671E-7,9.385569E-7,-3.5217243E-1,-6.559429E-2,3.5985193E0,5.938669E0,2.4764211E-1,-2.0999326E-1,1.34846E3,-3.5078776E-1,3.7854848E0,3.1665356E0,4.423097E0,-7.850866E-2,1.3554859E0,9.406847E-7,3.8207608E-1,4.5021167E0,2.3943158E-3,9.424682E-2,-1.6314E-1,-1.243432E-2,2.5898345E-2,1.2919521E-1,7.691381E-3,1.5920654E-1,-1.4734691E-1,2.3324296E-2,-1.8687777E-1,8.309736E-2,-4.7522616E-2,2.0478141E-1,-2.6006738E-3,-6.52234E-2,2.4914779E-1,-8.5191205E-3,-7.460426E-2,1.3968778E-1,-4.1414113E-3,-7.513824E-2,1.6153193E-1,-8.915617E-3,-1.3310453E-1,-2.2414109E-2,-4.946804E-2,2.5391775E-1,7.064375E-2,-9.383336E-2,-1.4304578E-1,-3.8303012E-1,1.640686E-3,9.4153084E-2,1.0494066E-1,-1.0104402E-1,-2.9118446E-1,5.7891384E-2],"split_indices":[1,1,4,4,2,4,1,1,4,2,4,4,2,4,2,1,1,1,4,1,2,0,0,2,2,4,1,0,4,2,2,1,1,4,4,1,2,2,2,4,4,0,0,2,2,0,0,1,0,2,2,2,0,2,4,0,2,0,0,0,0,0,0,0,0,0,0,0,0,0,0,0,0,0,0,0,0,0,0,0,0,0,0,0,0,0,0,0,0,0,0,0,0,0,0],"split_type":[0,0,0,0,0,0,0,0,0,0,0,0,0,0,0,0,0,0,0,0,0,0,0,0,0,0,0,0,0,0,0,0,0,0,0,0,0,0,0,0,0,0,0,0,0,0,0,0,0,0,0,0,0,0,0,0,0,0,0,0,0,0,0,0,0,0,0,0,0,0,0,0,0,0,0,0,0,0,0,0,0,0,0,0,0,0,0,0,0,0,0,0,0,0,0],"sum_hessian":[6.4299175E3,4.7616875E3,1.6682296E3,4.686715E3,7.49727E1,1.159101E3,5.0912878E2,3.7974683E3,8.8924664E2,7.014511E1,4.827594E0,9.910297E2,1.6807115E2,8.125672E0,5.010031E2,3.2163462E3,5.811221E2,1.5917043E2,7.3007623E2,6.7135735E1,3.0093749E0,1.7086418E0,3.118952E0,9.8199677E2,9.03298E0,7.112585E1,9.69453E1,1.2429711E0,6.8827014E0,3.640577E2,1.3694539E2,2.8863691E3,3.2997696E2,8.9589516E1,4.9153256E2,1.1943569E2,3.9734734E1,2.6125837E1,7.039504E2,2.3582401E1,4.3553333E1,1.245888E0,1.7634869E0,7.797576E2,2.0223914E2,7.596529E0,1.4364507E0,6.7138405E1,3.9874423E0,1.4086195E1,8.285911E1,4.411107E0,2.4715946E0,3.1966513E2,4.439257E1,6.9298553E0,1.3001553E2,2.8526997E3,3.3669537E1,3.7172592E1,2.9280438E2,4.422407E1,4.5365448E1,4.7880072E2,1.2731849E1,2.9505894E1,8.9929794E1,3.4105453E1,5.6292815E0,1.1730338E1,1.4395499E1,6.406929E2,6.325752E1,1.573084E1,7.8515615E0,1.7946774E1,2.560656E1,6.3254535E2,1.4721227E2,2.3593945E1,1.7864519E2,4.9485634E1,1.7652771E1,4.470619E0,9.615576E0,4.0007046E1,4.2852062E1,2.249187E0,2.1619198E0,2.7235202E2,4.731311E1,5.9485326E0,3.844404E1,6.276586E0,1.23738945E2],"tree_param":{"num_deleted":"0","num_feature":"7","num_nodes":"95","size_leaf_vector":"1"}},{"base_weights":[-3.4871354E-4,1.6916221E-3,-4.343127E-2,2.2697183E-1,9.6499606E-4,7.419885E-2,-9.440471E-2,-3.6295733E-1,6.715644E-1,-3.2024387E-1,1.822914E-3,-8.296337E-3,4.1549987E-1,-9.802342E-1,-6.327123E-2,-6.912772E-1,3.512159E-1,8.8238746E-1,2.8071614E-2,-8.962288E-1,2.1287082E-2,1.7455047E-1,8.2377915E-4,4.8659542E-1,-7.38718E-2,3.2790855E-1,2.2526146E-1,-1.0490988E-1,-3.3545566E-1,-2.87624E-1,-2.4683883E-2,-9.876795E-1,1.37952035E-2,-1.0125243E-1,2.58406E-1,-5.7832308E-2,3.3017534E-1,-1.0975001E-1,1.2606342E-1,1.4694846E-2,-1.1153849E0,2.7438927E-1,-5.730832E-1,-9.948645E-2,6.192058E-1,-2.5943738E-1,1.5329303E-3,8.1956017E-1,-1.1291556E-1,-1.7071949E-1,3.4534863E-1,-7.37279E-3,7.975247E-1,-6.1462384E-1,4.653428E-1,6.2588507E-1,-4.221048E-2,-2.8907113E-2,-3.7145686E-1,-3.9573553E-1,-7.0323676E-2,1.577906E-1,-2.2057389E-1,-3.644271E-1,1.1070231E-1,3.892442E-3,-3.4160012E-1,2.5900087E-1,-1.7372864E-1,-1.7931208E-1,1.17298774E-1,-5.075098E-5,2.2624407E-2,3.3808327E-1,1.5089266E-1,-9.600515E-3,-1.6301587E-1,3.5398972E-1,1.6375905E-2,-1.1016407E-1,1.04041345E-1,3.7661964E-1,-8.592302E-2,1.08366184E-1,-2.7294338E-1,3.660964E-1,-4.615332E-2,3.1389058E-1,-3.3263646E-3,-1.00145176E-1,-3.3039504E-3],"categories":[],"categories_nodes":[],"categories_segments":[],"categories_sizes":[],"default_left":[0,0,0,0,0,0,0,0,0,0,0,0,0,0,0,0,0,0,0,0,0,0,0,0,0,0,0,0,0,0,0,0,0,0,0,0,0,0,0,0,0,0,0,0,0,0,0,0,0,0,0,0,0,0,0,0,0,0,0,0,0,0,0,0,0,0,0,0,0,0,0,0,0,0,0,0,0,0,0,0,0,0,0,0,0,0,0,0,0,0,0],"id":18,"left_children":[1,3,5,7,9,11,13,15,17,19,21,23,25,27,29,31,33,35,37,39,41,43,45,47,49,-1,51,-1,-1,53,55,57,-1,-1,-1,-1,-1,-1,-1,-1,59,61,63,65,67,69,71,73,-1,75,77,79,81,83,85,87,89,-1,-1,-1,-1,-1,-1,-1,-1,-1,-1,-1,-1,-1,-1,-1,-1,-1,-1,-1,-1,-1,-1,-1,-1,-1,-1,-1,-1,-1,-1,-1,-1,-1,-1],"loss_changes":[5.6479824E-1,1.0040277E0,1.7490404E0,5.415813E0,1.6860209E0,2.4922905E0,5.5402746E0,2.3821244E0,1.5483675E0,3.225134E0,1.0527325E0,2.378037E0,1.9741383E0,2.028966E-1,1.7010357E0,1.4849164E0,1.533256E0,2.2535057E0,7.5528365E-1,1.3161335E0,1.8433421E0,4.3364744E0,1.120111E0,2.772633E0,2.6814904E0,0E0,1.964134E0,0E0,0E0,7.392368E0,1.9584944E0,9.3970966E-1,0E0,0E0,0E0,0E0,0E0,0E0,0E0,0E0,5.8562803E-1,2.5551217E0,2.6674948E0,2.6521397E0,4.4537616E0,3.862197E0,7.609882E-1,6.598711E-2,0E0,2.7297516E0,2.957558E0,1.5864953E0,2.474102E0,6.249287E0,4.5390234E0,1.2189217E0,1.5059223E0,0E0,0E0,0E0,0E0,0E0,0E0,0E0,0E0,0E0,0E0,0E0,0E0,0E0,0E0,0E0,0E0,0E0,0E0,0E0,0E0,0E0,0E0,0E0,0E0,0E0,0E0,0E0,0E0,0E0,0E0,0E0,0E0,0E0,0E0],"parents":[2147483647,0,0,1,1,2,2,3,3,4,4,5,5,6,6,7,7,8,8,9,9,10,10,11,11,12,12,13,13,14,14,15,15,16,16,17,17,18,18,19,19,20,20,21,21,22,22,23,23,24,24,26,26,29,29,30,30,31,31,40,40,41,41,42,42,43,43,44,44,45,45,46,46,47,47,49,49,50,50,51,51,52,52,53,53,54,54,55,55,56,56],"right_children":[2,4,6,8,10,12,14,16,18,20,22,24,26,28,30,32,34,36,38,40,42,44,46,48,50,-1,52,-1,-1,54,56,58,-1,-1,-1,-1,-1,-1,-1,-1,60,62,64,66,68,70,72,74,-1,76,78,80,82,84,86,88,90,-1,-1,-1,-1,-1,-1,-1,-1,-1,-1,-1,-1,-1,-1,-1,-1,-1,-1,-1,-1,-1,-1,-1,-1,-1,-1,-1,-1,-1,-1,-1,-1,-1,-1],"split_conditions":[1.78586E3,-1.21E1,9.3852606E-7,9.381836E-7,-9E0,9.382135E-7,9.3874723E-7,8.994654E0,1.12581E3,2.5936105E0,-5.8E0,3.1304953E-1,9.382751E-7,4.7979274E0,9.3923126E-7,1.01593E3,4.9217E2,3.103E1,4.0013156E0,9.3788E-7,9.4019026E-7,1.26556E3,-4.3E0,9.375195E-7,8.824027E0,3.2790855E-1,7.958066E0,-1.0490988E-1,-3.3545566E-1,6.0664654E0,9.392533E-7,1.5313E2,1.37952035E-2,-1.0125243E-1,2.58406E-1,-5.7832308E-2,3.3017534E-1,-1.0975001E-1,1.2606342E-1,1.4694846E-2,9.4231126E-7,1.44481E3,9.4102637E-7,9.86533E0,9.402743E-7,9.390734E-7,1.54437E3,2.05676E3,-1.1291556E-1,2.29676E3,9.373305E-7,9.3848115E-7,1.5177394E1,1.492995E-11,7.0637603E0,3.2520883E0,1.82085E3,-2.8907113E-2,-3.7145686E-1,-3.9573553E-1,-7.0323676E-2,1.577906E-1,-2.2057389E-1,-3.644271E-1,1.1070231E-1,3.892442E-3,-3.4160012E-1,2.5900087E-1,-1.7372864E-1,-1.7931208E-1,1.17298774E-1,-5.075098E-5,2.2624407E-2,3.3808327E-1,1.5089266E-1,-9.600515E-3,-1.6301587E-1,3.5398972E-1,1.6375905E-2,-1.1016407E-1,1.04041345E-1,3.7661964E-1,-8.592302E-2,1.08366184E-1,-2.7294338E-1,3.660964E-1,-4.615332E-2,3.1389058E-1,-3.3263646E-3,-1.00145176E-1,-3.3039504E-3],"split_indices":[1,3,4,4,3,4,4,2,1,2,3,2,4,2,4,1,1,1,2,4,4,1,3,4,2,0,2,0,0,2,4,1,0,0,0,0,0,0,0,0,4,1,4,2,4,4,1,1,0,1,4,4,2,2,2,2,1,0,0,0,0,0,0,0,0,0,0,0,0,0,0,0,0,0,0,0,0,0,0,0,0,0,0,0,0,0,0,0,0,0,0],"split_type":[0,0,0,0,0,0,0,0,0,0,0,0,0,0,0,0,0,0,0,0,0,0,0,0,0,0,0,0,0,0,0,0,0,0,0,0,0,0,0,0,0,0,0,0,0,0,0,0,0,0,0,0,0,0,0,0,0,0,0,0,0,0,0,0,0,0,0,0,0,0,0,0,0,0,0,0,0,0,0,0,0,0,0,0,0,0,0,0,0,0,0],"sum_hessian":[6.4234175E3,6.1338853E3,2.8953235E2,1.8719769E1,6.1151655E3,8.739575E1,2.0213661E2,8.123856E0,1.0595912E1,1.5297835E1,6.0998677E3,7.116926E1,1.6226488E1,5.828059E0,1.9630855E2,5.5873137E0,2.5365417E0,7.7014823E0,2.89443E0,5.089815E0,1.0208019E1,3.4082497E1,6.065785E3,7.575711E0,6.359355E1,2.516933E0,1.3709556E1,1.6807584E0,4.1473007E0,2.7861816E1,1.6844673E2,3.7428925E0,1.8444211E0,1.2233392E0,1.3132025E0,1.3189399E0,6.3825426E0,1.4774319E0,1.416998E0,1.104151E0,3.9856641E0,7.536911E0,2.6711085E0,2.1567133E1,1.2515362E1,1.5491534E1,6.050294E3,5.5028534E0,2.0728574E0,5.2140823E1,1.1452727E1,1.0448989E1,3.2605667E0,1.955372E1,8.308096E0,3.508389E0,1.6493834E2,1.1249452E0,2.6179473E0,2.8331323E0,1.152532E0,6.416987E0,1.1199241E0,1.4167262E0,1.2543823E0,2.035212E1,1.2150143E0,1.062937E1,1.8859925E0,1.0244672E1,5.246862E0,5.91502E3,1.3527351E2,1.493279E0,4.0095744E0,3.8788464E1,1.3352362E1,2.1688845E0,9.283843E0,5.164797E0,5.2841926E0,2.18106E0,1.0795068E0,4.489249E0,1.5064471E1,3.3061025E0,5.0019937E0,1.7263455E0,1.7820435E0,1.5002949E1,1.499354E2],"tree_param":{"num_deleted":"0","num_feature":"7","num_nodes":"91","size_leaf_vector":"1"}},{"base_weights":[-2.1310124E-4,1.0419955E-2,-7.7747093E-3,2.5608921E-3,1.7616546E-1,-1.7445812E-1,-3.7259918E-3,8.45702E-3,-9.705537E-2,1.2879531E-1,7.1213794E-1,-9.83831E-1,-1.2593275E-1,2.5582105E-2,-1.8664878E-2,3.8374334E-3,4.9178192E-1,-1.6690402E-1,2.483019E-1,2.1619588E-1,-5.746034E-1,9.295338E-1,-8.624507E-2,-3.5760272E-1,-1.12971194E-1,1.6701567E-1,-2.3557827E-1,7.568869E-2,-1.2141955E-2,-5.8400046E-2,3.919136E-3,6.5817875E-3,-3.9498898E-1,-1.560358E-1,9.155965E-1,-3.922137E-1,-6.88681E-2,-1.9722617E-1,3.484668E-1,1.09038234E-1,3.6225718E-1,-3.6906552E-1,-1.325056E-1,5.4834325E-2,3.1144753E-1,-9.379484E-2,3.6967528E-1,-3.516127E-1,2.7047938E-1,6.474214E-2,2.578066E-1,-2.1257666E-1,-5.9203026E-3,-4.2394776E-2,-3.1481495E-1,1.1813895E-1,-1.3777166E-2,-2.0453553E-3,2.0846618E-2,1.3450116E-1,-2.4744208E-1,1.7323552E-1,-2.4133494E-1,3.563191E-1,-4.8484296E-2,-2.9798096E-1,-7.095593E-2,9.1395974E-2,-4.0180575E-2,1.295897E-1,-1.1510486E-1,-2.848756E-2,5.1524695E-2,2.0658708E-1,-2.0502199E-1,3.2257475E-2,-1.9387637E-1,-5.580663E-2,-2.6465076E-1,2.0369898E-1,9.888737E-3,-2.70352E-3,4.005811E-2,-4.8835546E-2,5.396199E-3,7.84209E-2,-1.6927198E-2,-1.5377858E-2,-1.8898502E-1,1.142492E-1,-1.340478E-2,-5.664021E-2,1.996049E-3],"categories":[],"categories_nodes":[],"categories_segments":[],"categories_sizes":[],"default_left":[0,0,0,0,0,0,0,0,0,0,0,0,0,0,0,0,0,0,0,0,0,0,0,0,0,0,0,0,0,0,0,0,0,0,0,0,0,0,0,0,0,0,0,0,0,0,0,0,0,0,0,0,0,0,0,0,0,0,0,0,0,0,0,0,0,0,0,0,0,0,0,0,0,0,0,0,0,0,0,0,0,0,0,0,0,0,0,0,0,0,0,0,0],"id":19,"left_children":[1,3,5,7,9,11,13,15,17,19,21,23,25,27,29,31,33,35,37,39,41,43,-1,-1,-1,45,47,49,51,53,55,57,59,61,63,65,67,-1,69,71,-1,-1,73,-1,-1,75,-1,77,79,81,-1,-1,83,85,87,89,91,-1,-1,-1,-1,-1,-1,-1,-1,-1,-1,-1,-1,-1,-1,-1,-1,-1,-1,-1,-1,-1,-1,-1,-1,-1,-1,-1,-1,-1,-1,-1,-1,-1,-1,-1,-1],"loss_changes":[5.161544E-1,3.4748418E0,2.53115E0,1.4975032E0,2.9743543E0,3.3693779E0,1.6045488E0,5.371741E0,3.4783432E0,7.020623E0,2.3503423E0,1.6856861E-1,2.7714996E0,2.3398302E0,2.1784475E0,2.6129677E0,6.3965616E0,2.6038418E0,2.4399884E0,1.0544946E1,3.5097632E0,4.6806765E-1,0E0,0E0,0E0,6.7141695E0,3.7538743E0,4.5046754E0,3.0582817E0,3.5969427E0,3.1317792E0,1.9979029E0,6.2836695E0,5.1552167E0,4.271077E0,3.124516E0,2.0873563E0,0E0,1.5471728E0,1.1907007E0,0E0,0E0,4.40109E0,0E0,0E0,2.2948875E0,0E0,4.3271794E0,1.1601396E0,2.6664305E0,0E0,0E0,2.6338227E0,3.5487227E0,4.2474604E0,8.907034E0,4.7991858E0,0E0,0E0,0E0,0E0,0E0,0E0,0E0,0E0,0E0,0E0,0E0,0E0,0E0,0E0,0E0,0E0,0E0,0E0,0E0,0E0,0E0,0E0,0E0,0E0,0E0,0E0,0E0,0E0,0E0,0E0,0E0,0E0,0E0,0E0,0E0,0E0],"parents":[2147483647,0,0,1,1,2,2,3,3,4,4,5,5,6,6,7,7,8,8,9,9,10,10,11,11,12,12,13,13,14,14,15,15,16,16,17,17,18,18,19,19,20,20,21,21,25,25,26,26,27,27,28,28,29,29,30,30,31,31,32,32,33,33,34,34,35,35,36,36,38,38,39,39,42,42,45,45,47,47,48,48,49,49,52,52,53,53,54,54,55,55,56,56],"right_children":[2,4,6,8,10,12,14,16,18,20,22,24,26,28,30,32,34,36,38,40,42,44,-1,-1,-1,46,48,50,52,54,56,58,60,62,64,66,68,-1,70,72,-1,-1,74,-1,-1,76,-1,78,80,82,-1,-1,84,86,88,90,92,-1,-1,-1,-1,-1,-1,-1,-1,-1,-1,-1,-1,-1,-1,-1,-1,-1,-1,-1,-1,-1,-1,-1,-1,-1,-1,-1,-1,-1,-1,-1,-1,-1,-1,-1,-1],"split_conditions":[9.3809643E-7,9.380586E-7,9.3811315E-7,9.446151E0,1.03033E3,1.629E1,1.492995E-11,8.994654E0,1.12581E3,4.6072E2,7.639792E0,6.2325463E0,3.326E2,4.9663E2,1.8094488E0,8.647233E0,3.2391E2,9.369529E-7,-4.3E0,3.5236E2,5.2223E2,-3E0,-8.624507E-2,-3.5760272E-1,-1.12971194E-1,3.0773E2,1.182E3,4.9217E2,9.381976E-7,1.5981157E0,2.5936105E0,4.385319E0,1.6298E2,8.67E1,1.14354E3,1.7708E2,9.3712765E-7,-1.9722617E-1,1.5177394E1,1.477E2,3.6225718E-1,-3.6906552E-1,6.0182E2,5.4834325E-2,3.1144753E-1,2.6541E2,3.6967528E-1,8.3436E2,4.248529E-1,9.392533E-7,2.578066E-1,-2.1257666E-1,5.7126E2,1.451E1,9.3967964E-7,9.393195E-7,3.077935E0,-2.0453553E-3,2.0846618E-2,1.3450116E-1,-2.4744208E-1,1.7323552E-1,-2.4133494E-1,3.563191E-1,-4.8484296E-2,-2.9798096E-1,